void score(double * input, double * output) {
    double var0;
    if (input[3] < 0.045293756) {
        if (input[3] < -0.10915212) {
            if (input[0] < 4.8841176) {
                if (input[19] < -4.2717495) {
                    if (input[15] < -0.1892535) {
                        var0 = -0.54393905;
                    } else {
                        if (input[1] < 0.36456507) {
                            var0 = 0.3429982;
                        } else {
                            var0 = -0.54645693;
                        }
                    }
                } else {
                    var0 = -0.551367;
                }
            } else {
                if (input[0] < 4.88926) {
                    if (input[1] < -0.16643776) {
                        if (input[14] < 0.9334496) {
                            var0 = 0.6756171;
                        } else {
                            var0 = -0.48032814;
                        }
                    } else {
                        if (input[6] < 1.4999675) {
                            var0 = 3.168047;
                        } else {
                            var0 = 0.388245;
                        }
                    }
                } else {
                    var0 = -0.5437916;
                }
            }
        } else {
            if (input[0] < 4.8841176) {
                if (input[19] < -4.2717495) {
                    if (input[6] < 0.4049182) {
                        if (input[1] < 0.08367777) {
                            var0 = 1.1860408;
                        } else {
                            var0 = -0.47173178;
                        }
                    } else {
                        if (input[6] < 1.4999675) {
                            var0 = 0.3299425;
                        } else {
                            var0 = -0.332294;
                        }
                    }
                } else {
                    var0 = -0.55083877;
                }
            } else {
                if (input[0] < 4.88926) {
                    if (input[6] < 1.4999675) {
                        if (input[0] < 4.888878) {
                            var0 = 3.1203213;
                        } else {
                            var0 = 3.662904;
                        }
                    } else {
                        if (input[12] < -0.09104667) {
                            var0 = 1.6564069;
                        } else {
                            var0 = 0.010415693;
                        }
                    }
                } else {
                    if (input[0] < 4.8943477) {
                        if (input[12] < -0.090781376) {
                            var0 = -0.06200092;
                        } else {
                            var0 = -0.40233493;
                        }
                    } else {
                        var0 = -0.5481529;
                    }
                }
            }
        }
    } else {
        if (input[0] < 4.88926) {
            if (input[0] < 4.8841176) {
                if (input[0] < -0.015307536) {
                    if (input[12] < -0.0884754) {
                        if (input[6] < 0.68491894) {
                            var0 = 2.916037;
                        } else {
                            var0 = 0.0067846156;
                        }
                    } else {
                        if (input[22] < 4.1429086) {
                            var0 = 2.2003312;
                        } else {
                            var0 = -0.038074534;
                        }
                    }
                } else {
                    var0 = -0.55031925;
                }
            } else {
                if (input[6] < 1.4999675) {
                    var0 = 3.6536992;
                } else {
                    if (input[14] < -0.12126534) {
                        if (input[15] < 0.7823474) {
                            var0 = 2.6913843;
                        } else {
                            var0 = 0.84070987;
                        }
                    } else {
                        if (input[7] < -0.09383821) {
                            var0 = 0.03497551;
                        } else {
                            var0 = 1.3772973;
                        }
                    }
                }
            }
        } else {
            if (input[0] < 4.8943477) {
                if (input[12] < -0.09000592) {
                    if (input[3] < 0.97505796) {
                        if (input[6] < 0.4049182) {
                            var0 = 0.50141746;
                        } else {
                            var0 = -0.42226636;
                        }
                    } else {
                        if (input[14] < 0.2554186) {
                            var0 = 1.4316926;
                        } else {
                            var0 = 2.5409749;
                        }
                    }
                } else {
                    if (input[14] < 1.1895947) {
                        if (input[1] < 1.0179443) {
                            var0 = -0.24924387;
                        } else {
                            var0 = -0.5465476;
                        }
                    } else {
                        if (input[12] < -0.08802645) {
                            var0 = 1.2444843;
                        } else {
                            var0 = -0.36001918;
                        }
                    }
                }
            } else {
                var0 = -0.5496741;
            }
        }
    }
    double var1;
    if (input[8] < -0.04463272) {
        if (input[19] < -4.2717495) {
            if (input[1] < 0.76752466) {
                if (input[1] < -0.16629219) {
                    if (input[12] < 0.7640418) {
                        if (input[18] < -0.039571613) {
                            var1 = -0.5220347;
                        } else {
                            var1 = -0.19820279;
                        }
                    } else {
                        var1 = 0.092463195;
                    }
                } else {
                    if (input[12] < -0.09067934) {
                        if (input[11] < -0.27300373) {
                            var1 = 0.6986537;
                        } else {
                            var1 = 0.13331416;
                        }
                    } else {
                        if (input[22] < 4.1429086) {
                            var1 = -0.2994229;
                        } else {
                            var1 = 0.45167908;
                        }
                    }
                }
            } else {
                if (input[3] < 0.97505796) {
                    if (input[15] < 5.2136497) {
                        var1 = -0.5144513;
                    } else {
                        var1 = 0.26748148;
                    }
                } else {
                    if (input[12] < -0.0884754) {
                        var1 = -1.550465;
                    } else {
                        if (input[3] < 1.274683) {
                            var1 = -0.17449152;
                        } else {
                            var1 = -0.5695873;
                        }
                    }
                }
            }
        } else {
            if (input[0] < 4.8841176) {
                var1 = -0.52111846;
            } else {
                if (input[0] < 4.88926) {
                    if (input[14] < 0.8430455) {
                        if (input[16] < -1.4519702) {
                            var1 = -0.4068247;
                        } else {
                            var1 = 0.4749034;
                        }
                    } else {
                        if (input[12] < -0.09064873) {
                            var1 = 0.12568983;
                        } else {
                            var1 = -0.7847905;
                        }
                    }
                } else {
                    if (input[16] < 8.271319) {
                        if (input[8] < -0.058693208) {
                            var1 = -0.5042556;
                        } else {
                            var1 = -0.36209723;
                        }
                    } else {
                        if (input[3] < -0.08444078) {
                            var1 = -0.37098995;
                        } else {
                            var1 = 0.4203134;
                        }
                    }
                }
            }
        }
    } else {
        if (input[3] < 0.73103344) {
            if (input[0] < 4.8841176) {
                if (input[19] < -4.2717495) {
                    if (input[3] < 0.045293756) {
                        if (input[12] < -0.090638526) {
                            var1 = 0.2726549;
                        } else {
                            var1 = -0.07471106;
                        }
                    } else {
                        if (input[6] < 0.14835899) {
                            var1 = -0.01638171;
                        } else {
                            var1 = -0.38056237;
                        }
                    }
                } else {
                    var1 = -0.5226077;
                }
            } else {
                if (input[0] < 4.88926) {
                    if (input[0] < 4.888878) {
                        if (input[16] < -0.3763089) {
                            var1 = 0.0402331;
                        } else {
                            var1 = 0.29462847;
                        }
                    } else {
                        var1 = 0.5618072;
                    }
                } else {
                    if (input[0] < 4.8943477) {
                        if (input[12] < -0.090781376) {
                            var1 = 0.15108567;
                        } else {
                            var1 = -0.26026434;
                        }
                    } else {
                        var1 = -0.5182881;
                    }
                }
            }
        } else {
            if (input[8] < 7.1824584) {
                if (input[6] < 0.021866722) {
                    if (input[8] < 0.84117806) {
                        if (input[3] < 3.8848183) {
                            var1 = 0.3538463;
                        } else {
                            var1 = -0.3490646;
                        }
                    } else {
                        if (input[12] < -0.0813534) {
                            var1 = -0.5652889;
                        } else {
                            var1 = 0.08161373;
                        }
                    }
                } else {
                    if (input[6] < 0.4049182) {
                        if (input[8] < 0.292819) {
                            var1 = 0.018466888;
                        } else {
                            var1 = 0.47381967;
                        }
                    } else {
                        if (input[3] < 5.4879665) {
                            var1 = -0.2356511;
                        } else {
                            var1 = 0.5846705;
                        }
                    }
                }
            } else {
                if (input[12] < -0.090720154) {
                    if (input[18] < 1.9684331) {
                        if (input[6] < 1.4999675) {
                            var1 = 0.44048592;
                        } else {
                            var1 = -0.46729076;
                        }
                    } else {
                        if (input[1] < 0.5488653) {
                            var1 = 0.39820138;
                        } else {
                            var1 = -0.37452638;
                        }
                    }
                } else {
                    if (input[12] < -0.0884754) {
                        if (input[0] < -0.015307536) {
                            var1 = -1.6517338;
                        } else {
                            var1 = -0.54871976;
                        }
                    } else {
                        if (input[22] < 4.1429086) {
                            var1 = 0.4605029;
                        } else {
                            var1 = -0.53055364;
                        }
                    }
                }
            }
        }
    }
    double var2;
    if (input[3] < -0.09061862) {
        if (input[19] < -4.2717495) {
            if (input[15] < -0.14474155) {
                if (input[11] < -0.2850381) {
                    if (input[12] < -0.09090382) {
                        if (input[6] < 0.68491894) {
                            var2 = 0.015701089;
                        } else {
                            var2 = -0.47371045;
                        }
                    } else {
                        if (input[2] < -0.33847997) {
                            var2 = -0.34684008;
                        } else {
                            var2 = 1.0428952;
                        }
                    }
                } else {
                    if (input[1] < -0.15436764) {
                        var2 = -0.53553796;
                    } else {
                        if (input[3] < -0.112241045) {
                            var2 = -0.36231822;
                        } else {
                            var2 = 0.22336969;
                        }
                    }
                }
            } else {
                if (input[1] < 0.08367777) {
                    if (input[12] < -0.04551895) {
                        if (input[12] < -0.09061812) {
                            var2 = 0.16258135;
                        } else {
                            var2 = -0.34409362;
                        }
                    } else {
                        if (input[5] < -0.059061352) {
                            var2 = 0.30404857;
                        } else {
                            var2 = 1.063509;
                        }
                    }
                } else {
                    if (input[5] < -0.15014182) {
                        if (input[14] < -0.4828819) {
                            var2 = -0.16822727;
                        } else {
                            var2 = 0.7591607;
                        }
                    } else {
                        if (input[6] < -0.020141054) {
                            var2 = 0.13437556;
                        } else {
                            var2 = -0.51280683;
                        }
                    }
                }
            }
        } else {
            if (input[0] < 4.8841176) {
                var2 = -0.50441283;
            } else {
                if (input[0] < 4.88926) {
                    if (input[0] < 4.888878) {
                        if (input[12] < -0.09066914) {
                            var2 = 0.15998441;
                        } else {
                            var2 = -0.50956666;
                        }
                    } else {
                        var2 = 0.5723594;
                    }
                } else {
                    if (input[15] < 3.821945) {
                        if (input[8] < -0.016511744) {
                            var2 = -0.4702594;
                        } else {
                            var2 = 0.17311466;
                        }
                    } else {
                        if (input[14] < 1.1895947) {
                            var2 = -0.39942974;
                        } else {
                            var2 = 0.3993504;
                        }
                    }
                }
            }
        }
    } else {
        if (input[3] < 0.47774222) {
            if (input[9] < 3.4484744) {
                if (input[16] < 0.8407169) {
                    if (input[16] < -0.91378075) {
                        if (input[3] < 0.045293756) {
                            var2 = -0.33441755;
                        } else {
                            var2 = -1.2496343;
                        }
                    } else {
                        if (input[12] < -0.090771176) {
                            var2 = -0.18230261;
                        } else {
                            var2 = -0.47544008;
                        }
                    }
                } else {
                    if (input[14] < -0.4828819) {
                        if (input[5] < -0.24784632) {
                            var2 = -0.46573484;
                        } else {
                            var2 = 0.264023;
                        }
                    } else {
                        if (input[2] < -0.18915488) {
                            var2 = -0.7501915;
                        } else {
                            var2 = -0.17027289;
                        }
                    }
                }
            } else {
                if (input[6] < 0.12564874) {
                    if (input[14] < -0.12126534) {
                        if (input[1] < 0.36456507) {
                            var2 = 0.32163498;
                        } else {
                            var2 = -0.5378604;
                        }
                    } else {
                        if (input[12] < -0.09073036) {
                            var2 = 0.14758521;
                        } else {
                            var2 = -0.11500241;
                        }
                    }
                } else {
                    if (input[12] < -0.09098545) {
                        if (input[12] < -0.09111809) {
                            var2 = -0.30447757;
                        } else {
                            var2 = 0.15185942;
                        }
                    } else {
                        if (input[11] < -0.27300373) {
                            var2 = -0.05758773;
                        } else {
                            var2 = -0.47990522;
                        }
                    }
                }
            }
        } else {
            if (input[0] < 4.88926) {
                if (input[0] < 4.8841176) {
                    if (input[21] < -0.9564791) {
                        if (input[16] < -0.31603166) {
                            var2 = -0.26290053;
                        } else {
                            var2 = 0.22303928;
                        }
                    } else {
                        if (input[5] < 6.5521383) {
                            var2 = -0.5319006;
                        } else {
                            var2 = -0.25672954;
                        }
                    }
                } else {
                    if (input[0] < 4.888878) {
                        if (input[1] < 0.20507431) {
                            var2 = 0.12686212;
                        } else {
                            var2 = 0.45091593;
                        }
                    } else {
                        var2 = 0.5359909;
                    }
                }
            } else {
                if (input[0] < 4.8943477) {
                    if (input[6] < 0.05845538) {
                        if (input[8] < 1.558263) {
                            var2 = -0.07227544;
                        } else {
                            var2 = -0.57648224;
                        }
                    } else {
                        if (input[6] < 0.68491894) {
                            var2 = 0.24974433;
                        } else {
                            var2 = -0.5746706;
                        }
                    }
                } else {
                    var2 = -0.5196837;
                }
            }
        }
    }
    double var3;
    if (input[3] < -0.10915212) {
        if (input[19] < -4.2717495) {
            if (input[9] < 3.4055574) {
                if (input[6] < 0.04648592) {
                    if (input[12] < -0.067966506) {
                        if (input[4] < -0.022737721) {
                            var3 = -0.49939096;
                        } else {
                            var3 = -0.3467126;
                        }
                    } else {
                        if (input[9] < 2.5472174) {
                            var3 = -0.30941385;
                        } else {
                            var3 = 0.4097232;
                        }
                    }
                } else {
                    if (input[3] < -0.112241045) {
                        if (input[11] < -0.27300373) {
                            var3 = 0.14281887;
                        } else {
                            var3 = -0.31340876;
                        }
                    } else {
                        if (input[11] < -0.2262988) {
                            var3 = 0.09032956;
                        } else {
                            var3 = 0.88206846;
                        }
                    }
                }
            } else {
                if (input[4] < 0.5435416) {
                    if (input[11] < -0.2262988) {
                        if (input[1] < -0.16128379) {
                            var3 = -0.2780765;
                        } else {
                            var3 = 0.20145828;
                        }
                    } else {
                        if (input[3] < -0.11532996) {
                            var3 = 0.11707695;
                        } else {
                            var3 = 0.71312416;
                        }
                    }
                } else {
                    if (input[1] < -0.1643236) {
                        if (input[2] < 1.7492938) {
                            var3 = 0.42722026;
                        } else {
                            var3 = -0.3244423;
                        }
                    } else {
                        if (input[4] < 2.0168076) {
                            var3 = -0.50086504;
                        } else {
                            var3 = -0.07451472;
                        }
                    }
                }
            }
        } else {
            if (input[0] < 4.8841176) {
                var3 = -0.49473512;
            } else {
                if (input[0] < 4.88926) {
                    if (input[14] < 0.8430455) {
                        if (input[17] < -0.070482865) {
                            var3 = 0.36345437;
                        } else {
                            var3 = -0.08035961;
                        }
                    } else {
                        if (input[1] < -0.1658511) {
                            var3 = -0.6933321;
                        } else {
                            var3 = -0.11844542;
                        }
                    }
                } else {
                    var3 = -0.4685662;
                }
            }
        }
    } else {
        if (input[8] < 0.03973021) {
            if (input[16] < 0.8407169) {
                if (input[1] < 0.010368344) {
                    if (input[19] < -4.2717495) {
                        if (input[15] < -0.113928296) {
                            var3 = -0.30274177;
                        } else {
                            var3 = 0.06087349;
                        }
                    } else {
                        if (input[0] < 4.8841176) {
                            var3 = -0.49484074;
                        } else {
                            var3 = -0.04376809;
                        }
                    }
                } else {
                    if (input[14] < 0.40609217) {
                        if (input[6] < -0.01232426) {
                            var3 = -0.11153894;
                        } else {
                            var3 = -0.59260845;
                        }
                    } else {
                        if (input[12] < -0.09036303) {
                            var3 = -0.47774926;
                        } else {
                            var3 = -0.990909;
                        }
                    }
                }
            } else {
                if (input[14] < -0.4828819) {
                    if (input[6] < -0.014715831) {
                        if (input[17] < 1.71124) {
                            var3 = 0.6233377;
                        } else {
                            var3 = 0.1019837;
                        }
                    } else {
                        if (input[12] < -0.09088341) {
                            var3 = 0.039322145;
                        } else {
                            var3 = -0.3739119;
                        }
                    }
                } else {
                    if (input[3] < 0.9101907) {
                        if (input[5] < -0.2240412) {
                            var3 = -0.4403627;
                        } else {
                            var3 = -0.06371616;
                        }
                    } else {
                        if (input[12] < -0.0884754) {
                            var3 = -1.3585718;
                        } else {
                            var3 = -0.34324116;
                        }
                    }
                }
            }
        } else {
            if (input[8] < 9.080625) {
                if (input[3] < 2.0376456) {
                    if (input[6] < 0.3102383) {
                        if (input[0] < 4.8841176) {
                            var3 = 0.025976025;
                        } else {
                            var3 = 0.25239313;
                        }
                    } else {
                        if (input[12] < -0.091005854) {
                            var3 = -0.013840295;
                        } else {
                            var3 = -0.47784814;
                        }
                    }
                } else {
                    if (input[6] < 0.028050587) {
                        if (input[14] < 1.3252009) {
                            var3 = -0.10821696;
                        } else {
                            var3 = 0.21380988;
                        }
                    } else {
                        if (input[8] < 0.292819) {
                            var3 = -1.1048354;
                        } else {
                            var3 = 0.35735723;
                        }
                    }
                }
            } else {
                if (input[12] < -0.09067934) {
                    if (input[0] < 4.88926) {
                        if (input[17] < 0.31745037) {
                            var3 = 0.3522855;
                        } else {
                            var3 = -0.08608436;
                        }
                    } else {
                        if (input[16] < -0.24212031) {
                            var3 = 0.4016914;
                        } else {
                            var3 = -0.63460594;
                        }
                    }
                } else {
                    if (input[22] < 4.1429086) {
                        if (input[12] < -0.08656736) {
                            var3 = -0.43042874;
                        } else {
                            var3 = 0.36174393;
                        }
                    } else {
                        if (input[12] < -0.0884754) {
                            var3 = -0.696346;
                        } else {
                            var3 = -0.51362866;
                        }
                    }
                }
            }
        }
    }
    double var4;
    if (input[3] < -0.112241045) {
        if (input[19] < -4.2717495) {
            if (input[1] < -0.16644646) {
                var4 = -0.4769972;
            } else {
                if (input[17] < -0.046294734) {
                    if (input[6] < 0.68491894) {
                        if (input[9] < 2.5472174) {
                            var4 = -0.38527188;
                        } else {
                            var4 = 0.2012108;
                        }
                    } else {
                        if (input[12] < -0.09110789) {
                            var4 = -0.59821486;
                        } else {
                            var4 = -0.09619755;
                        }
                    }
                } else {
                    if (input[17] < 0.97464454) {
                        if (input[12] < -0.08740404) {
                            var4 = -0.48881108;
                        } else {
                            var4 = -0.14869224;
                        }
                    } else {
                        var4 = 0.083783664;
                    }
                }
            }
        } else {
            if (input[0] < 4.8841176) {
                var4 = -0.4889737;
            } else {
                if (input[0] < 4.88926) {
                    if (input[14] < 0.104745016) {
                        if (input[12] < -0.09111809) {
                            var4 = -0.23619536;
                        } else {
                            var4 = 0.33964288;
                        }
                    } else {
                        if (input[7] < -0.18326858) {
                            var4 = -0.5850571;
                        } else {
                            var4 = 0.06288798;
                        }
                    }
                } else {
                    var4 = -0.44531056;
                }
            }
        }
    } else {
        if (input[0] < 4.8943477) {
            if (input[0] < 4.8841176) {
                if (input[19] < -4.2717495) {
                    if (input[12] < 0.047515944) {
                        if (input[12] < -0.09019978) {
                            var4 = 0.08443125;
                        } else {
                            var4 = -0.10188172;
                        }
                    } else {
                        if (input[22] < 4.1429086) {
                            var4 = 0.5000086;
                        } else {
                            var4 = 1.3882565;
                        }
                    }
                } else {
                    if (input[3] < 10.794727) {
                        var4 = -0.5009155;
                    } else {
                        if (input[0] < -0.015307536) {
                            var4 = 0.15744677;
                        } else {
                            var4 = -0.27446744;
                        }
                    }
                }
            } else {
                if (input[0] < 4.88926) {
                    if (input[0] < 4.888878) {
                        if (input[1] < 0.76752466) {
                            var4 = 0.123924404;
                        } else {
                            var4 = 0.4061868;
                        }
                    } else {
                        var4 = 0.5098448;
                    }
                } else {
                    if (input[8] < 4.3000584) {
                        if (input[12] < -0.08740404) {
                            var4 = -0.043130003;
                        } else {
                            var4 = -0.34642443;
                        }
                    } else {
                        if (input[6] < 0.21008143) {
                            var4 = -0.63082016;
                        } else {
                            var4 = -0.011567408;
                        }
                    }
                }
            }
        } else {
            var4 = -0.5062389;
        }
    }
    double var5;
    if (input[3] < -0.112241045) {
        if (input[19] < -4.2717495) {
            if (input[14] < 0.2554186) {
                if (input[1] < 0.36456507) {
                    if (input[16] < -0.77026355) {
                        if (input[17] < -0.09074682) {
                            var5 = -0.5113929;
                        } else {
                            var5 = -0.16308995;
                        }
                    } else {
                        if (input[12] < -0.0911283) {
                            var5 = -0.40994826;
                        } else {
                            var5 = 0.15406305;
                        }
                    }
                } else {
                    if (input[7] < 4.8000393) {
                        var5 = -0.4716634;
                    } else {
                        var5 = -0.016334191;
                    }
                }
            } else {
                if (input[5] < -0.108741604) {
                    if (input[14] < 1.3252009) {
                        if (input[1] < -0.12047135) {
                            var5 = -0.51039296;
                        } else {
                            var5 = -0.11258713;
                        }
                    } else {
                        var5 = -0.029063854;
                    }
                } else {
                    if (input[4] < 0.19821301) {
                        if (input[16] < 2.7566714) {
                            var5 = 0.47269896;
                        } else {
                            var5 = -0.47588062;
                        }
                    } else {
                        if (input[11] < -0.1833188) {
                            var5 = -0.01768222;
                        } else {
                            var5 = -0.49803537;
                        }
                    }
                }
            }
        } else {
            if (input[0] < 4.8841176) {
                var5 = -0.485486;
            } else {
                if (input[0] < 4.88926) {
                    if (input[0] < 4.888878) {
                        if (input[1] < -0.1566274) {
                            var5 = -0.23897609;
                        } else {
                            var5 = 0.24316022;
                        }
                    } else {
                        var5 = 0.47618777;
                    }
                } else {
                    if (input[0] < 4.8943477) {
                        if (input[1] < -0.1566274) {
                            var5 = 0.7055078;
                        } else {
                            var5 = -0.44329625;
                        }
                    } else {
                        var5 = -0.46620062;
                    }
                }
            }
        }
    } else {
        if (input[0] < 4.8943477) {
            if (input[0] < 4.8841176) {
                if (input[21] < -0.9564791) {
                    if (input[12] < -0.09111809) {
                        if (input[14] < -0.33220834) {
                            var5 = -0.18209775;
                        } else {
                            var5 = -0.46706036;
                        }
                    } else {
                        if (input[8] < 7.1824584) {
                            var5 = 0.056810085;
                        } else {
                            var5 = -0.29775086;
                        }
                    }
                } else {
                    if (input[0] < -0.015307536) {
                        if (input[19] < 3.0540493) {
                            var5 = -0.5941249;
                        } else {
                            var5 = 0.511674;
                        }
                    } else {
                        var5 = -0.49169672;
                    }
                }
            } else {
                if (input[0] < 4.88926) {
                    if (input[0] < 4.888878) {
                        if (input[14] < 0.104745016) {
                            var5 = 0.31625837;
                        } else {
                            var5 = 0.03157361;
                        }
                    } else {
                        var5 = 0.4974017;
                    }
                } else {
                    if (input[5] < 0.2251925) {
                        if (input[6] < 0.68491894) {
                            var5 = 0.09206065;
                        } else {
                            var5 = -0.43988335;
                        }
                    } else {
                        if (input[8] < 2.9080698) {
                            var5 = -0.09996457;
                        } else {
                            var5 = -0.4221395;
                        }
                    }
                }
            }
        } else {
            var5 = -0.49353188;
        }
    }
    double var6;
    if (input[3] < -0.112241045) {
        if (input[19] < -4.2717495) {
            if (input[1] < -0.16644646) {
                var6 = -0.44495428;
            } else {
                if (input[17] < -0.046294734) {
                    if (input[6] < 0.4049182) {
                        if (input[11] < -0.27300373) {
                            var6 = 0.29072678;
                        } else {
                            var6 = -0.0056618103;
                        }
                    } else {
                        if (input[1] < -0.12756133) {
                            var6 = -0.3645158;
                        } else {
                            var6 = 0.030152742;
                        }
                    }
                } else {
                    if (input[4] < 2.0168076) {
                        if (input[12] < -0.091077276) {
                            var6 = -0.07850094;
                        } else {
                            var6 = -0.46386382;
                        }
                    } else {
                        if (input[11] < 1.8300077) {
                            var6 = 0.25462744;
                        } else {
                            var6 = -0.30490676;
                        }
                    }
                }
            }
        } else {
            if (input[0] < 4.8841176) {
                var6 = -0.48334852;
            } else {
                if (input[0] < 4.88926) {
                    if (input[5] < 0.6162589) {
                        if (input[12] < -0.09076097) {
                            var6 = 0.21407333;
                        } else {
                            var6 = -0.16655311;
                        }
                    } else {
                        if (input[15] < 0.94689214) {
                            var6 = -0.69928724;
                        } else {
                            var6 = -0.08263377;
                        }
                    }
                } else {
                    if (input[11] < -0.29793212) {
                        if (input[12] < -0.09073036) {
                            var6 = 0.4757637;
                        } else {
                            var6 = -0.3909474;
                        }
                    } else {
                        var6 = -0.4344863;
                    }
                }
            }
        }
    } else {
        if (input[7] < -0.2673869) {
            if (input[11] < -0.27300373) {
                if (input[3] < -0.007217843) {
                    if (input[16] < -0.6554498) {
                        var6 = 0.18601179;
                    } else {
                        if (input[1] < -0.10530276) {
                            var6 = -0.42631087;
                        } else {
                            var6 = -0.098626755;
                        }
                    }
                } else {
                    if (input[5] < -0.28895673) {
                        var6 = -0.13291088;
                    } else {
                        if (input[6] < 0.68491894) {
                            var6 = 0.50043446;
                        } else {
                            var6 = -0.0881773;
                        }
                    }
                }
            } else {
                if (input[3] < 0.045293756) {
                    if (input[1] < -0.09157259) {
                        var6 = -0.5555301;
                    } else {
                        var6 = 0.20333812;
                    }
                } else {
                    if (input[12] < -0.08740404) {
                        if (input[0] < -0.015307536) {
                            var6 = -1.2502666;
                        } else {
                            var6 = -0.37785193;
                        }
                    } else {
                        if (input[6] < -0.018515848) {
                            var6 = 0.0143363215;
                        } else {
                            var6 = -0.3757931;
                        }
                    }
                }
            }
        } else {
            if (input[3] < 4.094865) {
                if (input[14] < 2.5305896) {
                    if (input[0] < 4.8943477) {
                        if (input[11] < -0.27300373) {
                            var6 = 0.17844556;
                        } else {
                            var6 = -0.014649428;
                        }
                    } else {
                        var6 = -0.48312366;
                    }
                } else {
                    if (input[8] < 0.79899657) {
                        if (input[8] < 0.5880892) {
                            var6 = -0.42766452;
                        } else {
                            var6 = 0.21258023;
                        }
                    } else {
                        if (input[0] < 4.888878) {
                            var6 = -1.1985195;
                        } else {
                            var6 = -0.3042339;
                        }
                    }
                }
            } else {
                if (input[12] < -0.09000592) {
                    if (input[8] < 0.5177868) {
                        if (input[0] < -0.015307536) {
                            var6 = -1.7070476;
                        } else {
                            var6 = -0.3346326;
                        }
                    } else {
                        if (input[8] < 5.2702317) {
                            var6 = 0.37653294;
                        } else {
                            var6 = 0.05078456;
                        }
                    }
                } else {
                    if (input[22] < 4.1429086) {
                        if (input[12] < -0.057334527) {
                            var6 = 0.2501528;
                        } else {
                            var6 = -0.20392701;
                        }
                    } else {
                        if (input[12] < 0.08761543) {
                            var6 = -0.5124984;
                        } else {
                            var6 = 0.55405277;
                        }
                    }
                }
            }
        }
    }
    double var7;
    if (input[3] < -0.112241045) {
        if (input[19] < -4.2717495) {
            if (input[17] < -0.0947156) {
                if (input[16] < 1.3107357) {
                    if (input[16] < 1.2030978) {
                        if (input[11] < -0.27300373) {
                            var7 = -0.02851831;
                        } else {
                            var7 = -0.30915394;
                        }
                    } else {
                        if (input[6] < 0.3102383) {
                            var7 = 0.7193068;
                        } else {
                            var7 = 0.054121636;
                        }
                    }
                } else {
                    var7 = -0.4857991;
                }
            } else {
                if (input[12] < -0.09104667) {
                    if (input[12] < -0.09111809) {
                        if (input[16] < 1.6192977) {
                            var7 = -0.28679466;
                        } else {
                            var7 = 0.1276363;
                        }
                    } else {
                        if (input[14] < 0.40609217) {
                            var7 = 0.4420357;
                        } else {
                            var7 = -0.3309453;
                        }
                    }
                } else {
                    if (input[11] < -0.29793212) {
                        if (input[10] < -0.3406935) {
                            var7 = -0.06488641;
                        } else {
                            var7 = -0.51686215;
                        }
                    } else {
                        if (input[17] < -0.0652093) {
                            var7 = 0.07951077;
                        } else {
                            var7 = -0.2553261;
                        }
                    }
                }
            }
        } else {
            if (input[0] < 4.8841176) {
                var7 = -0.4820208;
            } else {
                if (input[0] < 4.8943477) {
                    if (input[11] < -0.16755946) {
                        if (input[5] < 0.6162589) {
                            var7 = 0.11523133;
                        } else {
                            var7 = -0.38686162;
                        }
                    } else {
                        if (input[2] < 3.4063287) {
                            var7 = -0.7540798;
                        } else {
                            var7 = -0.1214365;
                        }
                    }
                } else {
                    var7 = -0.4393153;
                }
            }
        }
    } else {
        if (input[16] < 0.97347033) {
            if (input[4] < -0.19735946) {
                if (input[3] < 0.35727444) {
                    if (input[12] < -0.0884754) {
                        if (input[11] < -0.2692788) {
                            var7 = 0.111045256;
                        } else {
                            var7 = -0.41024196;
                        }
                    } else {
                        if (input[3] < 0.16267262) {
                            var7 = -0.13456991;
                        } else {
                            var7 = 0.7845303;
                        }
                    }
                } else {
                    if (input[12] < -0.0890672) {
                        if (input[8] < 18.262123) {
                            var7 = -0.9751182;
                        } else {
                            var7 = -0.12903504;
                        }
                    } else {
                        if (input[2] < -0.18915488) {
                            var7 = 0.009968494;
                        } else {
                            var7 = -0.44094336;
                        }
                    }
                }
            } else {
                if (input[12] < -0.09068955) {
                    if (input[14] < 0.40609217) {
                        if (input[9] < 2.5901344) {
                            var7 = -0.41694131;
                        } else {
                            var7 = 0.1492458;
                        }
                    } else {
                        if (input[6] < 0.17692976) {
                            var7 = 0.027809888;
                        } else {
                            var7 = -0.2648164;
                        }
                    }
                } else {
                    if (input[5] < 4.8327875) {
                        if (input[12] < 0.5021503) {
                            var7 = -0.34647378;
                        } else {
                            var7 = 0.43087775;
                        }
                    } else {
                        if (input[16] < -0.25360167) {
                            var7 = -0.27295873;
                        } else {
                            var7 = 0.22467431;
                        }
                    }
                }
            }
        } else {
            if (input[6] < 0.4049182) {
                if (input[3] < 0.25534016) {
                    if (input[8] < 0.292819) {
                        if (input[1] < 0.20507431) {
                            var7 = 0.030710502;
                        } else {
                            var7 = -0.5312811;
                        }
                    } else {
                        if (input[6] < 0.12564874) {
                            var7 = -0.12061465;
                        } else {
                            var7 = -0.65109706;
                        }
                    }
                } else {
                    if (input[18] < 0.64281255) {
                        if (input[12] < -0.0884754) {
                            var7 = 0.2042485;
                        } else {
                            var7 = 0.6132695;
                        }
                    } else {
                        if (input[16] < 12.318504) {
                            var7 = 0.0591882;
                        } else {
                            var7 = -0.52277225;
                        }
                    }
                }
            } else {
                if (input[12] < -0.09097524) {
                    if (input[12] < -0.09111809) {
                        if (input[3] < 0.16267262) {
                            var7 = -0.08333627;
                        } else {
                            var7 = -0.3410135;
                        }
                    } else {
                        if (input[11] < -0.20051078) {
                            var7 = -0.06969087;
                        } else {
                            var7 = 0.2651735;
                        }
                    }
                } else {
                    if (input[3] < 6.2293067) {
                        if (input[3] < 0.28622934) {
                            var7 = -0.299609;
                        } else {
                            var7 = -0.6646587;
                        }
                    } else {
                        if (input[3] < 11.925271) {
                            var7 = -0.019696211;
                        } else {
                            var7 = 0.4781418;
                        }
                    }
                }
            }
        }
    }
    double var8;
    if (input[3] < -0.112241045) {
        if (input[19] < -4.2717495) {
            if (input[1] < 0.36456507) {
                if (input[14] < 0.2554186) {
                    if (input[6] < 1.4999675) {
                        if (input[6] < 0.010225948) {
                            var8 = -0.116090074;
                        } else {
                            var8 = 0.18043154;
                        }
                    } else {
                        if (input[1] < -0.03731027) {
                            var8 = -0.5470406;
                        } else {
                            var8 = 0.103740394;
                        }
                    }
                } else {
                    if (input[5] < -0.059061352) {
                        if (input[10] < -0.26205647) {
                            var8 = -0.4011747;
                        } else {
                            var8 = 0.099126704;
                        }
                    } else {
                        if (input[12] < -0.09097524) {
                            var8 = 0.41369182;
                        } else {
                            var8 = -0.12968487;
                        }
                    }
                }
            } else {
                if (input[15] < -0.20585532) {
                    var8 = -0.0033244428;
                } else {
                    var8 = -0.44125283;
                }
            }
        } else {
            if (input[0] < 4.8841176) {
                var8 = -0.4811765;
            } else {
                if (input[0] < 4.8943477) {
                    if (input[11] < -0.16755946) {
                        if (input[12] < -0.09076097) {
                            var8 = 0.13876376;
                        } else {
                            var8 = -0.16207278;
                        }
                    } else {
                        if (input[2] < 3.1566608) {
                            var8 = -0.58438015;
                        } else {
                            var8 = -0.10981177;
                        }
                    }
                } else {
                    var8 = -0.41785592;
                }
            }
        }
    } else {
        if (input[0] < 4.8943477) {
            if (input[0] < 4.8841176) {
                if (input[0] < -0.015307536) {
                    if (input[11] < -0.2262988) {
                        if (input[11] < -0.27300373) {
                            var8 = 0.15122932;
                        } else {
                            var8 = -0.22033492;
                        }
                    } else {
                        if (input[8] < 4.3000584) {
                            var8 = 0.03904821;
                        } else {
                            var8 = -0.12685557;
                        }
                    }
                } else {
                    var8 = -0.48651907;
                }
            } else {
                if (input[0] < 4.88926) {
                    if (input[0] < 4.888878) {
                        if (input[3] < 3.483259) {
                            var8 = 0.04090948;
                        } else {
                            var8 = 0.43302476;
                        }
                    } else {
                        var8 = 0.48927587;
                    }
                } else {
                    if (input[1] < 1.3133397) {
                        if (input[6] < 1.4999675) {
                            var8 = 0.01406035;
                        } else {
                            var8 = -0.49753985;
                        }
                    } else {
                        if (input[3] < 2.1519356) {
                            var8 = -0.5160027;
                        } else {
                            var8 = -0.10661848;
                        }
                    }
                }
            }
        } else {
            var8 = -0.47877708;
        }
    }
    double var9;
    if (input[3] < -0.112241045) {
        if (input[19] < -4.2717495) {
            if (input[16] < -0.77026355) {
                if (input[17] < -0.09074682) {
                    var9 = -0.46001205;
                } else {
                    if (input[1] < -0.16516666) {
                        var9 = 0.3346772;
                    } else {
                        if (input[15] < 0.10358081) {
                            var9 = 0.049083717;
                        } else {
                            var9 = -0.37466976;
                        }
                    }
                }
            } else {
                if (input[16] < 2.7566714) {
                    if (input[12] < -0.08740404) {
                        if (input[17] < -0.0652093) {
                            var9 = 0.06257577;
                        } else {
                            var9 = -0.29395354;
                        }
                    } else {
                        if (input[11] < -0.27300373) {
                            var9 = -0.10509982;
                        } else {
                            var9 = 0.5009321;
                        }
                    }
                } else {
                    if (input[10] < -0.29816955) {
                        if (input[1] < -0.1566274) {
                            var9 = -0.47527578;
                        } else {
                            var9 = 0.051059235;
                        }
                    } else {
                        if (input[17] < -0.09206805) {
                            var9 = 0.32461542;
                        } else {
                            var9 = -0.12685184;
                        }
                    }
                }
            }
        } else {
            if (input[0] < 4.8841176) {
                var9 = -0.4806119;
            } else {
                if (input[15] < 0.005630284) {
                    if (input[12] < -0.09082219) {
                        if (input[16] < -1.2151669) {
                            var9 = 0.039622303;
                        } else {
                            var9 = -0.5788734;
                        }
                    } else {
                        if (input[18] < -0.15208063) {
                            var9 = -0.30921912;
                        } else {
                            var9 = 0.22882469;
                        }
                    }
                } else {
                    if (input[18] < 0.4031768) {
                        if (input[2] < 0.0041097333) {
                            var9 = -0.041774046;
                        } else {
                            var9 = 0.29483464;
                        }
                    } else {
                        if (input[12] < -0.09082219) {
                            var9 = 0.022798946;
                        } else {
                            var9 = -0.3247363;
                        }
                    }
                }
            }
        }
    } else {
        if (input[16] < -1.2151669) {
            if (input[9] < 3.0193043) {
                if (input[5] < 1.7369627) {
                    if (input[22] < 4.1429086) {
                        if (input[3] < -0.09061862) {
                            var9 = -0.09924506;
                        } else {
                            var9 = -0.7468675;
                        }
                    } else {
                        if (input[8] < 0.053790696) {
                            var9 = -0.50134146;
                        } else {
                            var9 = 0.30547506;
                        }
                    }
                } else {
                    if (input[11] < -0.268849) {
                        var9 = -0.3443908;
                    } else {
                        var9 = 0.19397244;
                    }
                }
            } else {
                if (input[12] < -0.090720154) {
                    if (input[6] < 0.17692976) {
                        if (input[6] < -0.021236671) {
                            var9 = -0.5230027;
                        } else {
                            var9 = 0.08318782;
                        }
                    } else {
                        if (input[8] < 1.6988678) {
                            var9 = -0.52879614;
                        } else {
                            var9 = -0.05477445;
                        }
                    }
                } else {
                    if (input[5] < 4.8327875) {
                        if (input[11] < -0.27300373) {
                            var9 = 0.096171044;
                        } else {
                            var9 = -0.6141283;
                        }
                    } else {
                        var9 = 0.22766028;
                    }
                }
            }
        } else {
            if (input[3] < 4.332711) {
                if (input[12] < -0.0884754) {
                    if (input[12] < -0.09073036) {
                        if (input[14] < 1.9278952) {
                            var9 = 0.04690204;
                        } else {
                            var9 = -0.2491696;
                        }
                    } else {
                        if (input[6] < 0.17692976) {
                            var9 = -0.05580622;
                        } else {
                            var9 = -0.5226734;
                        }
                    }
                } else {
                    if (input[12] < -0.08802645) {
                        if (input[22] < 4.1429086) {
                            var9 = -0.38196746;
                        } else {
                            var9 = 0.91793364;
                        }
                    } else {
                        if (input[12] < 0.299153) {
                            var9 = 0.004884126;
                        } else {
                            var9 = 0.2830209;
                        }
                    }
                }
            } else {
                if (input[12] < -0.09000592) {
                    if (input[8] < 0.6443312) {
                        if (input[6] < 0.05845538) {
                            var9 = 0.27341118;
                        } else {
                            var9 = -1.0846274;
                        }
                    } else {
                        if (input[3] < 10.794727) {
                            var9 = 0.20282859;
                        } else {
                            var9 = 0.455627;
                        }
                    }
                } else {
                    if (input[12] < -0.08656736) {
                        if (input[1] < 3.8958504) {
                            var9 = 0.09855985;
                        } else {
                            var9 = -0.664454;
                        }
                    } else {
                        if (input[8] < 0.02566972) {
                            var9 = -0.60452497;
                        } else {
                            var9 = 0.056378834;
                        }
                    }
                }
            }
        }
    }
    double var10;
    if (input[3] < -0.112241045) {
        if (input[19] < -4.2717495) {
            if (input[3] < -0.11532996) {
                if (input[6] < 0.4049182) {
                    if (input[6] < 0.028050587) {
                        if (input[1] < -0.1589306) {
                            var10 = -0.00534752;
                        } else {
                            var10 = -0.38937405;
                        }
                    } else {
                        if (input[1] < -0.1589306) {
                            var10 = -0.11583328;
                        } else {
                            var10 = 0.29731563;
                        }
                    }
                } else {
                    if (input[12] < -0.09103646) {
                        if (input[12] < -0.09110789) {
                            var10 = -0.33558932;
                        } else {
                            var10 = 0.08901015;
                        }
                    } else {
                        if (input[11] < -0.16755946) {
                            var10 = -0.5311085;
                        } else {
                            var10 = -0.19553415;
                        }
                    }
                }
            } else {
                if (input[14] < 0.8430455) {
                    if (input[14] < -0.4828819) {
                        if (input[17] < -0.0947156) {
                            var10 = -0.3561709;
                        } else {
                            var10 = 0.07328848;
                        }
                    } else {
                        if (input[1] < -0.1662509) {
                            var10 = -0.3509109;
                        } else {
                            var10 = 0.35748756;
                        }
                    }
                } else {
                    if (input[16] < 1.3824943) {
                        if (input[7] < -0.2159657) {
                            var10 = -0.0200408;
                        } else {
                            var10 = -0.5256489;
                        }
                    } else {
                        if (input[15] < 0.13588263) {
                            var10 = -0.18554278;
                        } else {
                            var10 = 0.34698007;
                        }
                    }
                }
            }
        } else {
            if (input[0] < 4.8841176) {
                var10 = -0.48019254;
            } else {
                if (input[12] < -0.06523198) {
                    if (input[11] < -0.2692788) {
                        if (input[12] < -0.09066914) {
                            var10 = 0.23228884;
                        } else {
                            var10 = -0.3124644;
                        }
                    } else {
                        if (input[3] < -0.11532996) {
                            var10 = -0.3589126;
                        } else {
                            var10 = -0.02264271;
                        }
                    }
                } else {
                    if (input[12] < 1.9598942) {
                        var10 = 0.38953325;
                    } else {
                        var10 = 0.019491574;
                    }
                }
            }
        }
    } else {
        if (input[0] < 4.8943477) {
            if (input[16] < 6.9940166) {
                if (input[18] < -0.15404612) {
                    if (input[6] < -0.019133337) {
                        if (input[2] < 2.468364) {
                            var10 = -0.06405508;
                        } else {
                            var10 = 0.65417653;
                        }
                    } else {
                        if (input[8] < 2.0081985) {
                            var10 = -0.23406544;
                        } else {
                            var10 = -0.5725412;
                        }
                    }
                } else {
                    if (input[5] < 3.628621) {
                        if (input[12] < -0.090556905) {
                            var10 = 0.028072655;
                        } else {
                            var10 = -0.16795509;
                        }
                    } else {
                        if (input[14] < 1.3101336) {
                            var10 = -0.010185279;
                        } else {
                            var10 = 0.15668683;
                        }
                    }
                }
            } else {
                if (input[5] < 3.3672202) {
                    if (input[12] < -0.089465134) {
                        if (input[12] < -0.09051609) {
                            var10 = 0.00838506;
                        } else {
                            var10 = 0.21557812;
                        }
                    } else {
                        if (input[3] < -0.07208511) {
                            var10 = -0.339374;
                        } else {
                            var10 = 0.55845267;
                        }
                    }
                } else {
                    if (input[12] < -0.090556905) {
                        if (input[1] < 0.010368344) {
                            var10 = -0.2943658;
                        } else {
                            var10 = -1.1268173;
                        }
                    } else {
                        if (input[14] < 1.8525584) {
                            var10 = -0.45573515;
                        } else {
                            var10 = -0.12964202;
                        }
                    }
                }
            }
        } else {
            var10 = -0.47040248;
        }
    }
    double var11;
    if (input[2] < -0.28103614) {
        if (input[9] < 2.5901344) {
            if (input[8] < 1.2770531) {
                var11 = -0.47986645;
            } else {
                var11 = 0.10354991;
            }
        } else {
            if (input[1] < -0.1404593) {
                if (input[12] < -0.0908426) {
                    if (input[5] < -0.29073694) {
                        var11 = -0.121409394;
                    } else {
                        var11 = -0.5480498;
                    }
                } else {
                    if (input[15] < -0.18182816) {
                        var11 = -0.34354186;
                    } else {
                        var11 = 0.46636897;
                    }
                }
            } else {
                if (input[12] < -0.09061812) {
                    if (input[6] < 0.68491894) {
                        if (input[5] < -0.29239294) {
                            var11 = 0.009976836;
                        } else {
                            var11 = 0.4753618;
                        }
                    } else {
                        if (input[14] < -0.4828819) {
                            var11 = -0.43272856;
                        } else {
                            var11 = 0.17978728;
                        }
                    }
                } else {
                    var11 = -0.40395835;
                }
            }
        }
    } else {
        if (input[3] < -0.11532996) {
            if (input[19] < -4.2717495) {
                if (input[12] < -0.08740404) {
                    if (input[12] < -0.091077276) {
                        if (input[6] < 1.4999675) {
                            var11 = 0.111869566;
                        } else {
                            var11 = -0.30215394;
                        }
                    } else {
                        if (input[6] < -0.020721301) {
                            var11 = 0.1903931;
                        } else {
                            var11 = -0.19928159;
                        }
                    }
                } else {
                    if (input[16] < -0.35119337) {
                        if (input[11] < -0.16755946) {
                            var11 = 0.11669661;
                        } else {
                            var11 = 0.8491512;
                        }
                    } else {
                        if (input[17] < -0.052609343) {
                            var11 = 0.20407167;
                        } else {
                            var11 = -0.3622796;
                        }
                    }
                }
            } else {
                if (input[0] < 4.8841176) {
                    var11 = -0.47613585;
                } else {
                    if (input[14] < 0.40609217) {
                        if (input[6] < 0.68491894) {
                            var11 = 0.14820752;
                        } else {
                            var11 = -0.25936547;
                        }
                    } else {
                        var11 = -0.5728157;
                    }
                }
            }
        } else {
            if (input[6] < 0.4049182) {
                if (input[23] < 162.86627) {
                    if (input[12] < -0.07083367) {
                        if (input[0] < 4.8841176) {
                            var11 = -0.007090431;
                        } else {
                            var11 = 0.07240833;
                        }
                    } else {
                        if (input[6] < -0.005277433) {
                            var11 = 0.0664134;
                        } else {
                            var11 = 0.4140872;
                        }
                    }
                } else {
                    var11 = -0.73275656;
                }
            } else {
                if (input[12] < -0.09095483) {
                    if (input[12] < -0.09111809) {
                        if (input[9] < 2.8476365) {
                            var11 = 0.25209853;
                        } else {
                            var11 = -0.19819114;
                        }
                    } else {
                        if (input[6] < 0.68491894) {
                            var11 = -0.11894174;
                        } else {
                            var11 = 0.15983896;
                        }
                    }
                } else {
                    if (input[3] < 7.659476) {
                        if (input[16] < 0.97347033) {
                            var11 = -0.5905969;
                        } else {
                            var11 = -0.29698867;
                        }
                    } else {
                        if (input[6] < 0.68491894) {
                            var11 = 0.3410449;
                        } else {
                            var11 = -0.2542886;
                        }
                    }
                }
            }
        }
    }
    double var12;
    if (input[5] < -0.28369892) {
        if (input[1] < -0.06517259) {
            if (input[8] < 0.053790696) {
                var12 = -0.47973874;
            } else {
                if (input[14] < -0.33220834) {
                    var12 = 0.2180512;
                } else {
                    var12 = -0.29774305;
                }
            }
        } else {
            if (input[6] < 0.17692976) {
                if (input[8] < 1.1786298) {
                    if (input[14] < 2.4853873) {
                        if (input[12] < -0.090709955) {
                            var12 = -0.02838833;
                        } else {
                            var12 = -0.4455718;
                        }
                    } else {
                        var12 = 0.005013758;
                    }
                } else {
                    var12 = 0.09011082;
                }
            } else {
                if (input[12] < -0.09095483) {
                    var12 = -0.22627638;
                } else {
                    var12 = 0.3087412;
                }
            }
        }
    } else {
        if (input[1] < -0.16629219) {
            if (input[16] < -0.28230512) {
                if (input[1] < -0.1664269) {
                    if (input[1] < -0.16669634) {
                        var12 = 0.10302272;
                    } else {
                        var12 = -0.3622518;
                    }
                } else {
                    var12 = 0.5744361;
                }
            } else {
                if (input[0] < 4.888878) {
                    if (input[19] < -4.2717495) {
                        if (input[16] < 0.42308187) {
                            var12 = 0.11161181;
                        } else {
                            var12 = -0.3555483;
                        }
                    } else {
                        var12 = -0.4777918;
                    }
                } else {
                    var12 = 0.034263607;
                }
            }
        } else {
            if (input[8] < 0.011609232) {
                if (input[1] < 1.0179443) {
                    if (input[6] < 0.68491894) {
                        if (input[14] < 2.259377) {
                            var12 = 0.006506832;
                        } else {
                            var12 = -0.27711815;
                        }
                    } else {
                        if (input[1] < -0.096418016) {
                            var12 = -0.39097133;
                        } else {
                            var12 = -0.026131017;
                        }
                    }
                } else {
                    if (input[6] < -0.01894047) {
                        if (input[12] < -0.07969025) {
                            var12 = 0.25482875;
                        } else {
                            var12 = -0.56108993;
                        }
                    } else {
                        if (input[12] < -0.0884754) {
                            var12 = -0.63336;
                        } else {
                            var12 = -0.40894887;
                        }
                    }
                }
            } else {
                if (input[8] < 0.22251655) {
                    if (input[6] < -0.008259514) {
                        if (input[6] < -0.019133337) {
                            var12 = -0.061682157;
                        } else {
                            var12 = 0.2537575;
                        }
                    } else {
                        if (input[1] < 1.3133397) {
                            var12 = 0.038726166;
                        } else {
                            var12 = -0.5418028;
                        }
                    }
                } else {
                    if (input[3] < 2.0376456) {
                        if (input[14] < 2.259377) {
                            var12 = -0.039073847;
                        } else {
                            var12 = -0.38062567;
                        }
                    } else {
                        if (input[14] < 0.104745016) {
                            var12 = -0.009152422;
                        } else {
                            var12 = 0.14646684;
                        }
                    }
                }
            }
        }
    }
    double var13;
    if (input[5] < -0.28369892) {
        if (input[19] < -4.2717495) {
            if (input[6] < -0.0150855975) {
                if (input[8] < -0.030572232) {
                    var13 = -0.27117452;
                } else {
                    var13 = 0.4488412;
                }
            } else {
                if (input[11] < -0.2850381) {
                    if (input[4] < -0.23501848) {
                        if (input[6] < 0.4049182) {
                            var13 = 0.3179389;
                        } else {
                            var13 = -0.25486514;
                        }
                    } else {
                        var13 = -0.2632925;
                    }
                } else {
                    var13 = -0.4278478;
                }
            }
        } else {
            if (input[6] < 0.05845538) {
                var13 = -0.47930646;
            } else {
                var13 = 0.0153132705;
            }
        }
    } else {
        if (input[1] < -0.16629219) {
            if (input[16] < -0.28230512) {
                if (input[14] < 0.40609217) {
                    if (input[7] < -0.13851549) {
                        var13 = 0.5527065;
                    } else {
                        var13 = -0.30234212;
                    }
                } else {
                    var13 = -0.3238162;
                }
            } else {
                if (input[19] < -4.2717495) {
                    if (input[6] < -0.021755315) {
                        if (input[1] < -0.16648556) {
                            var13 = -0.32167292;
                        } else {
                            var13 = 0.27463624;
                        }
                    } else {
                        var13 = -0.35137168;
                    }
                } else {
                    if (input[0] < 4.888878) {
                        var13 = -0.4702962;
                    } else {
                        var13 = -0.041055962;
                    }
                }
            }
        } else {
            if (input[0] < 4.8943477) {
                if (input[16] < -0.6554498) {
                    if (input[12] < -0.090556905) {
                        if (input[16] < -1.4519702) {
                            var13 = -0.3009573;
                        } else {
                            var13 = 0.03836759;
                        }
                    } else {
                        if (input[12] < -0.08802645) {
                            var13 = -0.4242639;
                        } else {
                            var13 = -0.0012821745;
                        }
                    }
                } else {
                    if (input[3] < 6.2293067) {
                        if (input[8] < 2.0081985) {
                            var13 = 0.014253511;
                        } else {
                            var13 = -0.07197487;
                        }
                    } else {
                        if (input[12] < -0.09019978) {
                            var13 = 0.22964619;
                        } else {
                            var13 = -0.13939078;
                        }
                    }
                }
            } else {
                var13 = -0.4618102;
            }
        }
    }
    double var14;
    if (input[5] < -0.28369892) {
        if (input[19] < -4.2717495) {
            if (input[1] < -0.1149632) {
                if (input[5] < -0.28895673) {
                    if (input[1] < -0.15001544) {
                        var14 = 0.040461373;
                    } else {
                        var14 = -0.20437413;
                    }
                } else {
                    var14 = -0.38443998;
                }
            } else {
                if (input[16] < -0.6554498) {
                    var14 = -0.2580397;
                } else {
                    if (input[16] < 1.2030978) {
                        if (input[4] < -0.22684501) {
                            var14 = 0.29033297;
                        } else {
                            var14 = -0.0072604106;
                        }
                    } else {
                        var14 = -0.17136921;
                    }
                }
            }
        } else {
            if (input[6] < 0.05845538) {
                if (input[0] < 4.888878) {
                    var14 = -0.47917625;
                } else {
                    var14 = -0.13163064;
                }
            } else {
                var14 = 0.010841647;
            }
        }
    } else {
        if (input[6] < -0.021600083) {
            if (input[3] < -0.087529704) {
                if (input[12] < -0.08740404) {
                    if (input[10] < 0.14717895) {
                        if (input[4] < 0.00017851732) {
                            var14 = -0.3980059;
                        } else {
                            var14 = -0.079514675;
                        }
                    } else {
                        if (input[0] < 4.888878) {
                            var14 = -0.51139337;
                        } else {
                            var14 = -0.0024235246;
                        }
                    }
                } else {
                    if (input[6] < -0.022009458) {
                        if (input[11] < -0.16755946) {
                            var14 = 0.49887174;
                        } else {
                            var14 = -0.11679326;
                        }
                    } else {
                        if (input[12] < 0.5021503) {
                            var14 = -0.39603597;
                        } else {
                            var14 = 0.07970173;
                        }
                    }
                }
            } else {
                if (input[6] < -0.021679481) {
                    if (input[9] < 3.0193043) {
                        if (input[10] < -0.30056787) {
                            var14 = 0.2712042;
                        } else {
                            var14 = -0.37649223;
                        }
                    } else {
                        if (input[1] < -0.06517259) {
                            var14 = 0.51698077;
                        } else {
                            var14 = 0.10930917;
                        }
                    }
                } else {
                    if (input[12] < -0.088791706) {
                        if (input[10] < 0.3727281) {
                            var14 = -0.06712733;
                        } else {
                            var14 = 0.49038488;
                        }
                    } else {
                        if (input[10] < 1.8202875) {
                            var14 = -0.746342;
                        } else {
                            var14 = -0.17528485;
                        }
                    }
                }
            }
        } else {
            if (input[0] < 4.88926) {
                if (input[0] < 4.888878) {
                    if (input[19] < -4.2717495) {
                        if (input[12] < -0.0884754) {
                            var14 = -0.0055844584;
                        } else {
                            var14 = 0.10978457;
                        }
                    } else {
                        if (input[0] < 4.8841176) {
                            var14 = -0.47418258;
                        } else {
                            var14 = 0.03503877;
                        }
                    }
                } else {
                    var14 = 0.48470095;
                }
            } else {
                if (input[1] < 1.692724) {
                    if (input[11] < -0.2262988) {
                        if (input[11] < -0.2850381) {
                            var14 = 0.0030973682;
                        } else {
                            var14 = -0.20498744;
                        }
                    } else {
                        if (input[1] < 0.76752466) {
                            var14 = 0.11851048;
                        } else {
                            var14 = -0.13575651;
                        }
                    }
                } else {
                    if (input[8] < 4.3000584) {
                        if (input[12] < -0.08929168) {
                            var14 = -0.10602887;
                        } else {
                            var14 = -0.46857297;
                        }
                    } else {
                        if (input[6] < 0.2520295) {
                            var14 = -0.6888046;
                        } else {
                            var14 = -0.08187557;
                        }
                    }
                }
            }
        }
    }
    double var15;
    if (input[4] < -0.22898386) {
        if (input[1] < -0.03731027) {
            if (input[0] < 4.8841176) {
                if (input[18] < -0.1864432) {
                    var15 = -0.47696775;
                } else {
                    if (input[6] < 0.17692976) {
                        var15 = 0.17156962;
                    } else {
                        var15 = -0.2700993;
                    }
                }
            } else {
                var15 = 0.12081298;
            }
        } else {
            if (input[6] < -0.018515848) {
                var15 = 0.15709022;
            } else {
                if (input[18] < -0.18860233) {
                    var15 = -0.35467473;
                } else {
                    var15 = 0.08514673;
                }
            }
        }
    } else {
        if (input[12] < -0.090720154) {
            if (input[12] < -0.09108748) {
                if (input[14] < -0.12126534) {
                    if (input[1] < -0.14222799) {
                        if (input[6] < 0.2520295) {
                            var15 = -0.2257482;
                        } else {
                            var15 = 0.024334082;
                        }
                    } else {
                        if (input[12] < -0.09111809) {
                            var15 = -0.04559432;
                        } else {
                            var15 = 0.24250948;
                        }
                    }
                } else {
                    if (input[6] < 0.68491894) {
                        if (input[5] < 0.08459739) {
                            var15 = -0.48509872;
                        } else {
                            var15 = -0.07036243;
                        }
                    } else {
                        if (input[9] < 3.1051383) {
                            var15 = 0.35773456;
                        } else {
                            var15 = -0.15940157;
                        }
                    }
                }
            } else {
                if (input[5] < 3.005962) {
                    if (input[9] < 1.3026243) {
                        if (input[16] < 3.2912729) {
                            var15 = -0.45824566;
                        } else {
                            var15 = 0.11356564;
                        }
                    } else {
                        if (input[14] < 0.8430455) {
                            var15 = 0.110693336;
                        } else {
                            var15 = -0.010854132;
                        }
                    }
                } else {
                    if (input[12] < -0.090863004) {
                        if (input[1] < 0.5488653) {
                            var15 = -0.24447684;
                        } else {
                            var15 = -0.857735;
                        }
                    } else {
                        if (input[16] < 4.8412585) {
                            var15 = 0.11662759;
                        } else {
                            var15 = -0.5104238;
                        }
                    }
                }
            }
        } else {
            if (input[3] < 1.049192) {
                if (input[8] < 0.12409314) {
                    if (input[8] < 0.053790696) {
                        if (input[14] < 2.1087034) {
                            var15 = -0.011614201;
                        } else {
                            var15 = -0.28374314;
                        }
                    } else {
                        if (input[14] < 2.0635014) {
                            var15 = -0.045481607;
                        } else {
                            var15 = 0.32882512;
                        }
                    }
                } else {
                    if (input[12] < -0.07083367) {
                        if (input[6] < 0.07236356) {
                            var15 = -0.17805915;
                        } else {
                            var15 = -0.5034606;
                        }
                    } else {
                        if (input[11] < 2.0658247) {
                            var15 = 0.2323988;
                        } else {
                            var15 = -0.3450069;
                        }
                    }
                }
            } else {
                if (input[14] < 0.40609217) {
                    if (input[12] < -0.07571091) {
                        if (input[8] < 3.4564288) {
                            var15 = -0.07304369;
                        } else {
                            var15 = -0.5200907;
                        }
                    } else {
                        if (input[12] < -0.06250767) {
                            var15 = 0.26633742;
                        } else {
                            var15 = 0.016686125;
                        }
                    }
                } else {
                    if (input[8] < 0.09597216) {
                        if (input[22] < 4.1429086) {
                            var15 = -0.2698818;
                        } else {
                            var15 = -0.7589366;
                        }
                    } else {
                        if (input[8] < 0.22251655) {
                            var15 = 0.40445855;
                        } else {
                            var15 = 0.07474187;
                        }
                    }
                }
            }
        }
    }
    double var16;
    if (input[5] < -0.28369892) {
        if (input[19] < -4.2717495) {
            if (input[12] < -0.09088341) {
                if (input[6] < 0.3102383) {
                    if (input[1] < -0.15216874) {
                        var16 = -0.18619749;
                    } else {
                        var16 = 0.10962639;
                    }
                } else {
                    var16 = -0.30025283;
                }
            } else {
                if (input[12] < -0.09049568) {
                    var16 = 0.18713477;
                } else {
                    if (input[12] < -0.08656736) {
                        var16 = -0.28315967;
                    } else {
                        var16 = 0.10651923;
                    }
                }
            }
        } else {
            if (input[15] < 0.025412938) {
                var16 = -0.47278583;
            } else {
                var16 = -0.032391723;
            }
        }
    } else {
        if (input[6] < 1.4999675) {
            if (input[6] < 0.68491894) {
                if (input[6] < 0.4049182) {
                    if (input[20] < 8.424427) {
                        if (input[11] < -0.27300373) {
                            var16 = 0.08700498;
                        } else {
                            var16 = -0.0014685043;
                        }
                    } else {
                        if (input[8] < 3.9626064) {
                            var16 = -0.9970724;
                        } else {
                            var16 = 0.07652591;
                        }
                    }
                } else {
                    if (input[3] < 0.045293756) {
                        if (input[8] < 0.081911676) {
                            var16 = -0.0057677343;
                        } else {
                            var16 = 0.57957107;
                        }
                    } else {
                        if (input[1] < -0.07516765) {
                            var16 = -0.5852326;
                        } else {
                            var16 = -0.043703374;
                        }
                    }
                }
            } else {
                if (input[10] < -0.10916394) {
                    if (input[3] < 0.008226745) {
                        if (input[14] < -0.34727567) {
                            var16 = -0.30997258;
                        } else {
                            var16 = 0.11883279;
                        }
                    } else {
                        if (input[3] < 0.32020742) {
                            var16 = 1.1465954;
                        } else {
                            var16 = 0.08897127;
                        }
                    }
                } else {
                    if (input[3] < -0.07208511) {
                        if (input[8] < -0.0727537) {
                            var16 = -0.17084464;
                        } else {
                            var16 = -0.72724026;
                        }
                    } else {
                        if (input[16] < 0.5149329) {
                            var16 = -0.37011874;
                        } else {
                            var16 = 0.031113843;
                        }
                    }
                }
            }
        } else {
            if (input[1] < -0.13694148) {
                if (input[8] < 0.37718192) {
                    if (input[9] < 3.8776443) {
                        var16 = -0.52468485;
                    } else {
                        if (input[12] < -0.0911283) {
                            var16 = 0.2783047;
                        } else {
                            var16 = -0.39204913;
                        }
                    }
                } else {
                    if (input[5] < -0.15014182) {
                        var16 = 0.57766926;
                    } else {
                        if (input[15] < 0.061009027) {
                            var16 = 0.11913141;
                        } else {
                            var16 = -0.4471712;
                        }
                    }
                }
            } else {
                if (input[8] < 2.3737712) {
                    if (input[11] < -0.2262988) {
                        if (input[8] < 1.3895371) {
                            var16 = -0.18440607;
                        } else {
                            var16 = 0.29064897;
                        }
                    } else {
                        if (input[14] < -0.42261246) {
                            var16 = -0.0070411647;
                        } else {
                            var16 = 0.5487732;
                        }
                    }
                } else {
                    if (input[14] < 0.40609217) {
                        if (input[10] < 0.1921627) {
                            var16 = -0.48136303;
                        } else {
                            var16 = -0.16158113;
                        }
                    } else {
                        if (input[16] < 2.3476474) {
                            var16 = 0.52512074;
                        } else {
                            var16 = -0.16558713;
                        }
                    }
                }
            }
        }
    }
    double var17;
    if (input[4] < -0.2366226) {
        if (input[19] < -4.2717495) {
            if (input[6] < -0.018515848) {
                if (input[14] < 0.104745016) {
                    var17 = -0.08577143;
                } else {
                    var17 = 0.18402423;
                }
            } else {
                if (input[2] < -0.3244364) {
                    var17 = 0.017558586;
                } else {
                    var17 = -0.3159938;
                }
            }
        } else {
            var17 = -0.46999577;
        }
    } else {
        if (input[11] < -0.29793212) {
            if (input[15] < 0.073794276) {
                if (input[1] < -0.1404593) {
                    if (input[6] < -0.01779461) {
                        if (input[6] < -0.021482497) {
                            var17 = -0.18490651;
                        } else {
                            var17 = 0.24185897;
                        }
                    } else {
                        if (input[1] < -0.1643236) {
                            var17 = -0.15908316;
                        } else {
                            var17 = -0.6526786;
                        }
                    }
                } else {
                    if (input[8] < 3.0767956) {
                        if (input[3] < -0.07208511) {
                            var17 = -0.33385512;
                        } else {
                            var17 = 0.16925402;
                        }
                    } else {
                        if (input[12] < -0.09102626) {
                            var17 = -0.91112304;
                        } else {
                            var17 = -0.14583817;
                        }
                    }
                }
            } else {
                if (input[1] < -0.16128379) {
                    if (input[14] < -0.4828819) {
                        var17 = 0.59558564;
                    } else {
                        if (input[3] < -0.10297429) {
                            var17 = -0.2062762;
                        } else {
                            var17 = 0.29005134;
                        }
                    }
                } else {
                    if (input[15] < 4.41458) {
                        if (input[16] < 6.5491133) {
                            var17 = -0.15079226;
                        } else {
                            var17 = -0.63440794;
                        }
                    } else {
                        if (input[1] < 0.76752466) {
                            var17 = 0.55181503;
                        } else {
                            var17 = -0.24850258;
                        }
                    }
                }
            }
        } else {
            if (input[11] < -0.29735905) {
                if (input[1] < -0.094840534) {
                    if (input[6] < 0.05845538) {
