void score(double * input, double * output) {
    double var0;
    if (input[0] < 4.8848553) {
        if (input[0] < -0.01356928) {
            if (input[1] < -0.14011817) {
                if (input[1] < -0.16575113) {
                    var0 = -0.5354526;
                } else {
                    if (input[2] < -0.067731865) {
                        if (input[4] < -0.21943146) {
                            var0 = -0.32148904;
                        } else {
                            var0 = 0.4448494;
                        }
                    } else {
                        if (input[2] < 2.8386807) {
                            var0 = 0.9872828;
                        } else {
                            var0 = 0.21614426;
                        }
                    }
                }
            } else {
                if (input[1] < 0.092897445) {
                    if (input[4] < -0.21943146) {
                        if (input[4] < -0.22891383) {
                            var0 = -0.38148096;
                        } else {
                            var0 = 0.24533813;
                        }
                    } else {
                        if (input[1] < -0.12049578) {
                            var0 = 1.1815581;
                        } else {
                            var0 = 1.8433713;
                        }
                    }
                } else {
                    if (input[1] < 6.248393) {
                        if (input[2] < -0.26884043) {
                            var0 = 0.44393328;
                        } else {
                            var0 = 2.4068289;
                        }
                    } else {
                        if (input[2] < 5.1555624) {
                            var0 = 1.8054403;
                        } else {
                            var0 = 0.480443;
                        }
                    }
                }
            }
        } else {
            var0 = -0.5513539;
        }
    } else {
        if (input[0] < 4.8899937) {
            if (input[1] < -0.1660537) {
                var0 = -0.33746144;
            } else {
                var0 = 3.6094866;
            }
        } else {
            if (input[0] < 4.89508) {
                if (input[1] < 3.8897488) {
                    if (input[1] < -0.114805095) {
                        if (input[4] < 0.78132004) {
                            var0 = -0.37986103;
                        } else {
                            var0 = -0.12742145;
                        }
                    } else {
                        if (input[4] < 5.294013) {
                            var0 = 0.33689144;
                        } else {
                            var0 = 0.8515977;
                        }
                    }
                } else {
                    if (input[4] < 3.0883152) {
                        if (input[4] < 2.5151842) {
                            var0 = -0.23450835;
                        } else {
                            var0 = 0.4608789;
                        }
                    } else {
                        if (input[4] < 5.294013) {
                            var0 = -0.4849857;
                        } else {
                            var0 = -0.20441361;
                        }
                    }
                }
            } else {
                var0 = -0.547492;
            }
        }
    }
    double var1;
    if (input[3] < 0.007698695) {
        if (input[3] < -0.10931771) {
            if (input[1] < 0.092897445) {
                if (input[3] < -0.11239709) {
                    var1 = -0.52025366;
                } else {
                    if (input[2] < -0.22604166) {
                        if (input[1] < -0.068661466) {
                            var1 = -0.5059865;
                        } else {
                            var1 = 0.09475732;
                        }
                    } else {
                        if (input[4] < 0.5699661) {
                            var1 = -0.12445568;
                        } else {
                            var1 = -0.4025017;
                        }
                    }
                }
            } else {
                if (input[2] < 1.8298396) {
                    if (input[2] < -0.18891205) {
                        if (input[1] < 0.5627822) {
                            var1 = 0.08293008;
                        } else {
                            var1 = -0.53256136;
                        }
                    } else {
                        var1 = -0.93643564;
                    }
                } else {
                    if (input[2] < 3.6723688) {
                        if (input[4] < 0.78132004) {
                            var1 = -0.5318526;
                        } else {
                            var1 = -0.60950875;
                        }
                    } else {
                        var1 = -0.97520393;
                    }
                }
            }
        } else {
            if (input[1] < -0.034979854) {
                if (input[2] < -0.22604166) {
                    if (input[1] < -0.07935987) {
                        var1 = -0.48507726;
                    } else {
                        var1 = -0.0068433043;
                    }
                } else {
                    if (input[4] < 0.5699661) {
                        if (input[2] < 0.4820924) {
                            var1 = -0.07156555;
                        } else {
                            var1 = 0.3865373;
                        }
                    } else {
                        if (input[3] < -0.0970002) {
                            var1 = -0.32988554;
                        } else {
                            var1 = -0.14250216;
                        }
                    }
                }
            } else {
                if (input[4] < -0.08801119) {
                    if (input[3] < -0.08468268) {
                        var1 = 0.3052591;
                    } else {
                        var1 = -0.4363817;
                    }
                } else {
                    if (input[1] < 0.2168736) {
                        var1 = -0.5664107;
                    } else {
                        var1 = -0.9500912;
                    }
                }
            }
        }
    } else {
        if (input[3] < 0.44189116) {
            if (input[1] < -0.08746472) {
                if (input[1] < -0.114805095) {
                    if (input[3] < 0.34027165) {
                        if (input[1] < -0.14961922) {
                            var1 = -0.01356946;
                        } else {
                            var1 = 0.22383751;
                        }
                    } else {
                        if (input[4] < 0.5699661) {
                            var1 = -0.32109663;
                        } else {
                            var1 = 0.33717975;
                        }
                    }
                } else {
                    if (input[3] < 0.20169958) {
                        if (input[1] < -0.09922216) {
                            var1 = -0.3745276;
                        } else {
                            var1 = 0.24954377;
                        }
                    } else {
                        if (input[2] < 2.2938695) {
                            var1 = 0.47909975;
                        } else {
                            var1 = -0.2532065;
                        }
                    }
                }
            } else {
                if (input[1] < 0.37107545) {
                    if (input[4] < -0.1936501) {
                        var1 = -0.42758605;
                    } else {
                        if (input[4] < 0.2099027) {
                            var1 = 0.18191358;
                        } else {
                            var1 = -0.06996342;
                        }
                    }
                } else {
                    if (input[3] < 0.408018) {
                        var1 = -0.6286338;
                    } else {
                        var1 = -0.08063753;
                    }
                }
            }
        } else {
            if (input[1] < -0.096148804) {
                if (input[3] < 0.57430446) {
                    if (input[1] < -0.10501011) {
                        if (input[4] < 0.3226058) {
                            var1 = -0.4598197;
                        } else {
                            var1 = 0.17837706;
                        }
                    } else {
                        if (input[1] < -0.09922216) {
                            var1 = 0.5017227;
                        } else {
                            var1 = -0.041104887;
                        }
                    }
                } else {
                    if (input[1] < -0.09922216) {
                        var1 = -0.70105;
                    } else {
                        if (input[3] < 0.62973326) {
                            var1 = 0.3628212;
                        } else {
                            var1 = -0.5379967;
                        }
                    }
                }
            } else {
                if (input[2] < 5.1555624) {
                    if (input[4] < -0.15122697) {
                        if (input[2] < -0.13867517) {
                            var1 = 0.315036;
                        } else {
                            var1 = -0.5967011;
                        }
                    } else {
                        if (input[3] < 1.821453) {
                            var1 = 0.3103391;
                        } else {
                            var1 = 0.42931116;
                        }
                    }
                } else {
                    if (input[4] < 5.294013) {
                        if (input[1] < 2.1274383) {
                            var1 = 0.08692586;
                        } else {
                            var1 = -0.27820945;
                        }
                    } else {
                        if (input[1] < 2.6277347) {
                            var1 = 0.28399795;
                        } else {
                            var1 = 0.15376662;
                        }
                    }
                }
            }
        }
    }
    double var2;
    if (input[3] < -0.0970002) {
        if (input[3] < -0.11239709) {
            if (input[0] < 4.8848553) {
                var2 = -0.5043567;
            } else {
                if (input[0] < 4.8899937) {
                    if (input[0] < 4.8896165) {
                        if (input[3] < -0.115476474) {
                            var2 = 0.18653052;
                        } else {
                            var2 = -0.25122842;
                        }
                    } else {
                        var2 = 0.44724894;
                    }
                } else {
                    var2 = -0.4928117;
                }
            }
        } else {
            if (input[0] < -0.01356928) {
                if (input[2] < 1.2032577) {
                    if (input[3] < -0.10007957) {
                        if (input[2] < 0.21734007) {
                            var2 = 0.33135846;
                        } else {
                            var2 = 0.0030296578;
                        }
                    } else {
                        if (input[2] < 0.4820924) {
                            var2 = -0.2110916;
                        } else {
                            var2 = 0.17573498;
                        }
                    }
                } else {
                    if (input[4] < 3.0883152) {
                        var2 = -0.63449633;
                    } else {
                        var2 = 0.093796395;
                    }
                }
            } else {
                if (input[0] < 4.8848553) {
                    var2 = -0.504684;
                } else {
                    if (input[0] < 4.8899937) {
                        if (input[0] < 4.8896165) {
                            var2 = -0.0277757;
                        } else {
                            var2 = 0.47918;
                        }
                    } else {
                        var2 = -0.332954;
                    }
                }
            }
        }
    } else {
        if (input[0] < 4.89508) {
            if (input[0] < 4.8848553) {
                if (input[0] < -0.01356928) {
                    if (input[3] < 1.9446282) {
                        if (input[4] < 0.70896465) {
                            var2 = 0.1560502;
                        } else {
                            var2 = 0.02713769;
                        }
                    } else {
                        if (input[3] < 15.312213) {
                            var2 = 0.22418466;
                        } else {
                            var2 = -0.057414982;
                        }
                    }
                } else {
                    var2 = -0.5219176;
                }
            } else {
                if (input[0] < 4.8899937) {
                    if (input[0] < 4.8896165) {
                        if (input[3] < 0.7867816) {
                            var2 = 0.17030948;
                        } else {
                            var2 = 0.45113575;
                        }
                    } else {
                        var2 = 0.5433431;
                    }
                } else {
                    if (input[4] < 2.4283578) {
                        if (input[3] < 0.44189116) {
                            var2 = -0.24756323;
                        } else {
                            var2 = 0.58912414;
                        }
                    } else {
                        if (input[2] < 5.1555624) {
                            var2 = -0.01758762;
                        } else {
                            var2 = -0.369089;
                        }
                    }
                }
            }
        } else {
            var2 = -0.52241755;
        }
    }
    double var3;
    if (input[3] < -0.10931771) {
        if (input[0] < -0.01356928) {
            if (input[1] < 0.014353848) {
                if (input[1] < -0.16575113) {
                    if (input[4] < -0.15122697) {
                        var3 = -0.4818449;
                    } else {
                        if (input[4] < 0.062145334) {
                            var3 = 0.5563233;
                        } else {
                            var3 = -0.3692929;
                        }
                    }
                } else {
                    if (input[4] < 0.70896465) {
                        if (input[4] < -0.23889126) {
                            var3 = -0.3082478;
                        } else {
                            var3 = 0.3874163;
                        }
                    } else {
                        var3 = -0.31537962;
                    }
                }
            } else {
                var3 = -0.6530265;
            }
        } else {
            if (input[0] < 4.8848553) {
                var3 = -0.49470043;
            } else {
                if (input[0] < 4.8899937) {
                    if (input[1] < -0.16540748) {
                        var3 = -0.3036107;
                    } else {
                        var3 = 0.28720957;
                    }
                } else {
                    var3 = -0.47440085;
                }
            }
        }
    } else {
        if (input[0] < 4.89508) {
            if (input[0] < 4.8848553) {
                if (input[0] < -0.01356928) {
                    if (input[4] < 3.0883152) {
                        if (input[3] < 1.276403) {
                            var3 = 0.05250818;
                        } else {
                            var3 = 0.17179772;
                        }
                    } else {
                        if (input[1] < -0.15173297) {
                            var3 = 0.6245199;
                        } else {
                            var3 = -0.0033548372;
                        }
                    }
                } else {
                    var3 = -0.50140274;
                }
            } else {
                if (input[0] < 4.8899937) {
                    if (input[0] < 4.8896165) {
                        if (input[1] < -0.07935987) {
                            var3 = -0.0053279772;
                        } else {
                            var3 = 0.36578938;
                        }
                    } else {
                        var3 = 0.51545495;
                    }
                } else {
                    if (input[1] < 6.248393) {
                        if (input[3] < 0.23557276) {
                            var3 = -0.25222504;
                        } else {
                            var3 = 0.16783783;
                        }
                    } else {
                        if (input[3] < 8.873231) {
                            var3 = -0.4904548;
                        } else {
                            var3 = -0.26306358;
                        }
                    }
                }
            }
        } else {
            var3 = -0.4988216;
        }
    }
    double var4;
    if (input[3] < -0.10931771) {
        if (input[0] < -0.01356928) {
            if (input[4] < 0.5699661) {
                if (input[4] < -0.22891383) {
                    var4 = -0.4322555;
                } else {
                    if (input[4] < -0.18710002) {
                        if (input[2] < -0.29094) {
                            var4 = -0.047879875;
                        } else {
                            var4 = 0.5598197;
                        }
                    } else {
                        if (input[4] < -0.15122697) {
                            var4 = -0.4341774;
                        } else {
                            var4 = 0.01079234;
                        }
                    }
                }
            } else {
                if (input[3] < -0.11239709) {
                    var4 = -0.5455694;
                } else {
                    var4 = -0.11474441;
                }
            }
        } else {
            if (input[0] < 4.8848553) {
                var4 = -0.48890996;
            } else {
                if (input[0] < 4.8899937) {
                    if (input[4] < 0.2099027) {
                        var4 = -0.102754906;
                    } else {
                        var4 = 0.25190827;
                    }
                } else {
                    var4 = -0.45414826;
                }
            }
        }
    } else {
        if (input[0] < 4.89508) {
            if (input[0] < 4.8848553) {
                if (input[0] < -0.01356928) {
                    if (input[4] < -0.1936501) {
                        if (input[2] < -0.13867517) {
                            var4 = -0.04321903;
                        } else {
                            var4 = -0.7795647;
                        }
                    } else {
                        if (input[3] < 8.312784) {
                            var4 = 0.0431651;
                        } else {
                            var4 = 0.1870828;
                        }
                    }
                } else {
                    var4 = -0.48912272;
                }
            } else {
                if (input[0] < 4.8899937) {
                    if (input[0] < 4.8896165) {
                        if (input[3] < 1.3533874) {
                            var4 = 0.05215811;
                        } else {
                            var4 = 0.38055342;
                        }
                    } else {
                        var4 = 0.4983515;
                    }
                } else {
                    if (input[4] < -0.15122697) {
                        var4 = -0.3903404;
                    } else {
                        if (input[4] < 2.0799093) {
                            var4 = 0.27056643;
                        } else {
                            var4 = -0.067927554;
                        }
                    }
                }
            }
        } else {
            var4 = -0.48163053;
        }
    }
    double var5;
    if (input[3] < -0.10931771) {
        if (input[3] < -0.11239709) {
            if (input[2] < -0.26884043) {
                var5 = -0.48478442;
            } else {
                if (input[2] < 0.56247115) {
                    if (input[1] < -0.16575113) {
                        var5 = -0.4284566;
                    } else {
                        if (input[1] < -0.15397424) {
                            var5 = 0.050902143;
                        } else {
                            var5 = -0.2461924;
                        }
                    }
                } else {
                    var5 = -0.47910288;
                }
            }
        } else {
            if (input[1] < -0.16540748) {
                var5 = -0.47184983;
            } else {
                if (input[1] < -0.16373247) {
                    if (input[2] < 0.024538929) {
                        var5 = -0.23085527;
                    } else {
                        var5 = 0.23673894;
                    }
                } else {
                    if (input[4] < -0.18710002) {
                        var5 = 0.06968438;
                    } else {
                        if (input[4] < -0.08801119) {
                            var5 = -0.5687776;
                        } else {
                            var5 = -0.22271386;
                        }
                    }
                }
            }
        }
    } else {
        if (input[3] < 0.14935014) {
            if (input[1] < 0.092897445) {
                if (input[1] < -0.13043989) {
                    if (input[2] < 0.59779453) {
                        if (input[2] < -0.25426492) {
                            var5 = -0.32335722;
                        } else {
                            var5 = 0.0023243388;
                        }
                    } else {
                        if (input[3] < -0.106238335) {
                            var5 = -0.3520201;
                        } else {
                            var5 = 0.1674567;
                        }
                    }
                } else {
                    if (input[3] < -0.035412613) {
                        if (input[4] < -0.21528055) {
                            var5 = 0.20240185;
                        } else {
                            var5 = -0.3506837;
                        }
                    } else {
                        if (input[2] < 3.481426) {
                            var5 = -0.14430395;
                        } else {
                            var5 = 0.093565576;
                        }
                    }
                }
            } else {
                if (input[1] < 0.2168736) {
                    if (input[2] < 0.33803102) {
                        var5 = 0.102781564;
                    } else {
                        var5 = -0.48644575;
                    }
                } else {
                    var5 = -0.75046784;
                }
            }
        } else {
            if (input[1] < 8.813497) {
                if (input[3] < 8.873231) {
                    if (input[1] < 6.248393) {
                        if (input[3] < 3.5397465) {
                            var5 = 0.03541279;
                        } else {
                            var5 = 0.13827948;
                        }
                    } else {
                        if (input[3] < 8.312784) {
                            var5 = -0.7059129;
                        } else {
                            var5 = -0.11611101;
                        }
                    }
                } else {
                    if (input[3] < 10.659271) {
                        if (input[4] < -0.1936501) {
                            var5 = -0.09691173;
                        } else {
                            var5 = 0.27969602;
                        }
                    } else {
                        if (input[2] < 4.28131) {
                            var5 = 0.38250616;
                        } else {
                            var5 = 0.7369355;
                        }
                    }
                }
            } else {
                if (input[3] < 11.964928) {
                    if (input[2] < 5.1555624) {
                        var5 = -0.8566284;
                    } else {
                        var5 = -0.3971933;
                    }
                } else {
                    if (input[2] < 2.8386807) {
                        if (input[4] < 2.5151842) {
                            var5 = -0.07341716;
                        } else {
                            var5 = -0.6058506;
                        }
                    } else {
                        if (input[4] < 3.0883152) {
                            var5 = 0.394964;
                        } else {
                            var5 = 0.0051043946;
                        }
                    }
                }
            }
        }
    }
    double var6;
    if (input[3] < -0.11239709) {
        if (input[0] < -0.01356928) {
            if (input[1] < 0.014353848) {
                if (input[1] < -0.16599967) {
                    var6 = -0.39825612;
                } else {
                    if (input[2] < -0.31049588) {
                        var6 = -0.26552305;
                    } else {
                        if (input[2] < -0.067731865) {
                            var6 = 0.6268618;
                        } else {
                            var6 = 0.22382444;
                        }
                    }
                }
            } else {
                if (input[2] < -0.067731865) {
                    var6 = 0.08608268;
                } else {
                    var6 = -0.48269203;
                }
            }
        } else {
            if (input[0] < 4.8848553) {
                var6 = -0.48319054;
            } else {
                if (input[0] < 4.8899937) {
                    if (input[1] < -0.16540748) {
                        var6 = -0.10750753;
                    } else {
                        var6 = 0.33002883;
                    }
                } else {
                    var6 = -0.4018755;
                }
            }
        }
    } else {
        if (input[0] < 4.89508) {
            if (input[0] < 4.8848553) {
                if (input[0] < -0.01356928) {
                    if (input[1] < 3.8897488) {
                        if (input[3] < 3.9339073) {
                            var6 = 0.01408103;
                        } else {
                            var6 = 0.1958184;
                        }
                    } else {
                        if (input[3] < 5.177976) {
                            var6 = -0.9361612;
                        } else {
                            var6 = -0.018168656;
                        }
                    }
                } else {
                    var6 = -0.4804909;
                }
            } else {
                if (input[0] < 4.8899937) {
                    if (input[0] < 4.8896165) {
                        if (input[1] < 1.0271925) {
                            var6 = 0.009284745;
                        } else {
                            var6 = 0.4287769;
                        }
                    } else {
                        var6 = 0.48657697;
                    }
                } else {
                    if (input[1] < 3.16969) {
                        if (input[3] < 3.5397465) {
                            var6 = -0.03508031;
                        } else {
                            var6 = 0.6152456;
                        }
                    } else {
                        if (input[3] < 4.4142904) {
                            var6 = -0.47798374;
                        } else {
                            var6 = -0.122704595;
                        }
                    }
                }
            }
        } else {
            var6 = -0.46719387;
        }
    }
    double var7;
    if (input[3] < -0.11239709) {
        if (input[2] < -0.26884043) {
            var7 = -0.4801883;
        } else {
            if (input[2] < 0.56247115) {
                if (input[1] < -0.16575113) {
                    if (input[2] < -0.13867517) {
                        var7 = -0.4442197;
                    } else {
                        if (input[4] < -0.08801119) {
                            var7 = 0.32413977;
                        } else {
                            var7 = -0.29500526;
                        }
                    }
                } else {
                    if (input[4] < 0.3226058) {
                        if (input[2] < 0.21734007) {
                            var7 = -0.088416524;
                        } else {
                            var7 = 0.16970915;
                        }
                    } else {
                        var7 = -0.37182286;
                    }
                }
            } else {
                if (input[3] < -0.115476474) {
                    var7 = -0.4609851;
                } else {
                    var7 = -0.115104266;
                }
            }
        }
    } else {
        if (input[2] < -0.3095456) {
            var7 = -0.39893425;
        } else {
            if (input[3] < 1.276403) {
                if (input[1] < 1.0271925) {
                    if (input[4] < -0.21943146) {
                        if (input[3] < 0.09392131) {
                            var7 = 0.026790733;
                        } else {
                            var7 = -0.37284896;
                        }
                    } else {
                        if (input[1] < 0.7813453) {
                            var7 = 0.009241133;
                        } else {
                            var7 = -0.22056125;
                        }
                    }
                } else {
                    var7 = -0.71632904;
                }
            } else {
                if (input[1] < 2.6277347) {
                    if (input[1] < 0.5627822) {
                        if (input[3] < 2.0462477) {
                            var7 = 0.036001503;
                        } else {
                            var7 = -0.31433088;
                        }
                    } else {
                        if (input[4] < 0.2099027) {
                            var7 = 0.32565987;
                        } else {
                            var7 = 0.07261552;
                        }
                    }
                } else {
                    if (input[3] < 3.5397465) {
                        var7 = -0.94329447;
                    } else {
                        if (input[2] < -0.18891205) {
                            var7 = 0.43836176;
                        } else {
                            var7 = 0.0044772956;
                        }
                    }
                }
            }
        }
    }
    double var8;
    if (input[3] < -0.11239709) {
        if (input[0] < -0.01356928) {
            if (input[1] < 0.2168736) {
                if (input[4] < -0.2354639) {
                    var8 = -0.37343603;
                } else {
                    if (input[1] < -0.12608705) {
                        if (input[1] < -0.16609044) {
                            var8 = -0.25442004;
                        } else {
                            var8 = 0.28903046;
                        }
                    } else {
                        if (input[4] < 0.109024025) {
                            var8 = 0.1380583;
                        } else {
                            var8 = -0.38389435;
                        }
                    }
                }
            } else {
                var8 = -0.38149095;
            }
        } else {
            if (input[0] < 4.8848553) {
                var8 = -0.48074982;
            } else {
                if (input[0] < 4.8899937) {
                    var8 = 0.20261891;
                } else {
                    var8 = -0.33833188;
                }
            }
        }
    } else {
        if (input[0] < 4.89508) {
            if (input[0] < 4.8848553) {
                if (input[0] < -0.01356928) {
                    if (input[1] < -0.12762158) {
                        if (input[4] < 0.062145334) {
                            var8 = -0.0076613124;
                        } else {
                            var8 = 0.13805944;
                        }
                    } else {
                        if (input[3] < 0.047730625) {
                            var8 = -0.2249365;
                        } else {
                            var8 = -0.002785626;
                        }
                    }
                } else {
                    var8 = -0.47175467;
                }
            } else {
                if (input[0] < 4.8899937) {
                    if (input[0] < 4.8896165) {
                        if (input[1] < 1.0271925) {
                            var8 = 0.002572623;
                        } else {
                            var8 = 0.3899963;
                        }
                    } else {
                        var8 = 0.47669575;
                    }
                } else {
                    if (input[4] < -0.15122697) {
                        var8 = -0.30732116;
                    } else {
                        if (input[3] < 0.44189116) {
                            var8 = -0.15268058;
                        } else {
                            var8 = 0.057604495;
                        }
                    }
                }
            }
        } else {
            var8 = -0.45006493;
        }
    }
    double var9;
    if (input[3] < -0.11239709) {
        if (input[0] < -0.01356928) {
            if (input[1] < 0.7813453) {
                if (input[1] < -0.16609044) {
                    var9 = -0.34232277;
                } else {
                    if (input[4] < -0.20560777) {
                        if (input[1] < -0.1607045) {
                            var9 = -0.26091;
                        } else {
                            var9 = 0.80624443;
                        }
                    } else {
                        if (input[1] < -0.16592187) {
                            var9 = 0.65462613;
                        } else {
                            var9 = 0.0023939272;
                        }
                    }
                }
            } else {
                var9 = -0.42057186;
            }
        } else {
            if (input[0] < 4.8848553) {
                var9 = -0.47989517;
            } else {
                if (input[0] < 4.8899937) {
                    if (input[1] < -0.15612255) {
                        var9 = -0.016249225;
                    } else {
                        var9 = 0.28387573;
                    }
                } else {
                    var9 = -0.30183524;
                }
            }
        }
    } else {
        if (input[0] < 4.89508) {
            if (input[4] < 7.708399) {
                if (input[4] < 3.0883152) {
                    if (input[4] < 2.5368907) {
                        if (input[4] < 2.471771) {
                            var9 = 0.015939195;
                        } else {
                            var9 = -0.773974;
                        }
                    } else {
                        if (input[1] < -0.117614776) {
                            var9 = -0.19830653;
                        } else {
                            var9 = 0.17293034;
                        }
                    }
                } else {
                    if (input[1] < 2.1274383) {
                        if (input[3] < 2.0462477) {
                            var9 = -0.047701664;
                        } else {
                            var9 = 0.26165178;
                        }
                    } else {
                        if (input[3] < 2.9946966) {
                            var9 = -0.7572921;
                        } else {
                            var9 = -0.11176271;
                        }
                    }
                }
            } else {
                if (input[0] < 4.8899937) {
                    if (input[3] < 2.4096146) {
                        if (input[1] < 1.7021906) {
                            var9 = 0.087745756;
                        } else {
                            var9 = -0.32419288;
                        }
                    } else {
                        if (input[1] < 2.6277347) {
                            var9 = 0.4728352;
                        } else {
                            var9 = 0.17507102;
                        }
                    }
                } else {
                    if (input[1] < 1.7021906) {
                        if (input[3] < 0.7867816) {
                            var9 = -0.17225523;
                        } else {
                            var9 = 0.23746634;
                        }
                    } else {
                        if (input[3] < 3.9339073) {
                            var9 = -0.3599388;
                        } else {
                            var9 = 0.029075217;
                        }
                    }
                }
            }
        } else {
            var9 = -0.4295121;
        }
    }
    double var10;
    if (input[3] < -0.11239709) {
        if (input[2] < -0.29094) {
            var10 = -0.47556964;
        } else {
            if (input[2] < 1.8298396) {
                if (input[1] < -0.16575113) {
                    if (input[4] < 0.109024025) {
                        var10 = -0.34898552;
                    } else {
                        var10 = 0.013411687;
                    }
                } else {
                    if (input[2] < 0.4820924) {
                        if (input[4] < -0.17940749) {
                            var10 = 0.2118493;
                        } else {
                            var10 = -0.115523815;
                        }
                    } else {
                        if (input[1] < -0.14376643) {
                            var10 = 0.62224656;
                        } else {
                            var10 = -0.3200957;
                        }
                    }
                }
            } else {
                var10 = -0.44041595;
            }
        }
    } else {
        if (input[4] < -0.21528055) {
            if (input[2] < -0.18891205) {
                if (input[2] < -0.26884043) {
                    if (input[3] < -0.106238335) {
                        if (input[2] < -0.3057356) {
                            var10 = 0.4013149;
                        } else {
                            var10 = -0.14899918;
                        }
                    } else {
                        var10 = -0.35568467;
                    }
                } else {
                    if (input[3] < 2.5481865) {
                        if (input[3] < 1.0485289) {
                            var10 = 0.20808499;
                        } else {
                            var10 = -0.19713067;
                        }
                    } else {
                        var10 = 0.3723771;
                    }
                }
            } else {
                if (input[1] < 3.8897488) {
                    if (input[3] < 0.97770315) {
                        if (input[1] < 0.37107545) {
                            var10 = -0.06381319;
                        } else {
                            var10 = -0.5851354;
                        }
                    } else {
                        if (input[1] < 2.1274383) {
                            var10 = 0.21725963;
                        } else {
                            var10 = -0.07758296;
                        }
                    }
                } else {
                    if (input[3] < 11.964928) {
                        var10 = -0.40303767;
                    } else {
                        if (input[3] < 13.335252) {
                            var10 = 0.1597547;
                        } else {
                            var10 = -0.1471642;
                        }
                    }
                }
            }
        } else {
            if (input[3] < 15.312213) {
                if (input[3] < 8.312784) {
                    if (input[1] < 4.804858) {
                        if (input[3] < 4.6360054) {
                            var10 = 0.00044083;
                        } else {
                            var10 = 0.1534825;
                        }
                    } else {
                        if (input[3] < 6.612967) {
                            var10 = -0.64379334;
                        } else {
                            var10 = -0.11371724;
                        }
                    }
                } else {
                    if (input[1] < 8.813497) {
                        if (input[1] < 3.8897488) {
                            var10 = -0.22961462;
                        } else {
                            var10 = 0.2550805;
                        }
                    } else {
                        if (input[3] < 11.964928) {
                            var10 = -0.46590227;
                        } else {
                            var10 = 0.15390153;
                        }
                    }
                }
            } else {
                if (input[2] < 2.8386807) {
                    if (input[2] < -0.13867517) {
                        var10 = 0.42417666;
                    } else {
                        if (input[4] < -0.15122697) {
                            var10 = -0.61138934;
                        } else {
                            var10 = -0.263601;
                        }
                    }
                } else {
                    if (input[4] < 4.569697) {
                        var10 = 0.25875783;
                    } else {
                        if (input[4] < 5.294013) {
                            var10 = -0.25230032;
                        } else {
                            var10 = 0.008172074;
                        }
                    }
                }
            }
        }
    }
    double var11;
    if (input[2] < -0.3095456) {
        var11 = -0.47391972;
    } else {
        if (input[1] < -0.16584621) {
            if (input[0] < -0.01356928) {
                if (input[2] < -0.13867517) {
                    var11 = -0.30538175;
                } else {
                    var11 = 0.58477247;
                }
            } else {
                var11 = -0.44512594;
            }
        } else {
            if (input[0] < 4.89508) {
                if (input[0] < 4.8848553) {
                    if (input[0] < -0.01356928) {
                        if (input[2] < -0.3037709) {
                            var11 = 0.7265862;
                        } else {
                            var11 = -0.0018739467;
                        }
                    } else {
                        var11 = -0.4680814;
                    }
                } else {
                    if (input[0] < 4.8899937) {
                        if (input[0] < 4.8896165) {
                            var11 = 0.036871817;
                        } else {
                            var11 = 0.47099075;
                        }
                    } else {
                        if (input[2] < 4.28131) {
                            var11 = 0.04055306;
                        } else {
                            var11 = -0.13543142;
                        }
                    }
                }
            } else {
                var11 = -0.40822807;
            }
        }
    }
    double var12;
    if (input[2] < -0.3095456) {
        if (input[1] < -0.034979854) {
            var12 = -0.47576314;
        } else {
            var12 = -0.022040624;
        }
    } else {
        if (input[1] < -0.16599967) {
            var12 = -0.41242734;
        } else {
            if (input[4] < 5.294013) {
                if (input[4] < 4.569697) {
                    if (input[2] < 4.28131) {
                        if (input[2] < 1.8298396) {
                            var12 = 0.010252221;
                        } else {
                            var12 = -0.08355489;
                        }
                    } else {
                        if (input[4] < 2.5368907) {
                            var12 = -0.6135808;
                        } else {
                            var12 = 0.2218667;
                        }
                    }
                } else {
                    if (input[1] < 0.37107545) {
                        if (input[2] < 5.1555624) {
                            var12 = 0.14127319;
                        } else {
                            var12 = -0.29054904;
                        }
                    } else {
                        if (input[3] < 2.0462477) {
                            var12 = -0.3278318;
                        } else {
                            var12 = -0.19964513;
                        }
                    }
                }
            } else {
                if (input[3] < 9.667711) {
                    if (input[1] < 1.0271925) {
                        if (input[3] < 0.90379804) {
                            var12 = 0.03700796;
                        } else {
                            var12 = 0.30719626;
                        }
                    } else {
                        if (input[3] < 2.4096146) {
                            var12 = -0.28086922;
                        } else {
                            var12 = 0.06886966;
                        }
                    }
                } else {
                    if (input[1] < 8.813497) {
                        var12 = 0.4956634;
                    } else {
                        if (input[3] < 11.964928) {
                            var12 = -0.21092175;
                        } else {
                            var12 = 0.15901577;
                        }
                    }
                }
            }
        }
    }
    double var13;
    if (input[2] < -0.3095456) {
        if (input[0] < -0.01356928) {
            var13 = -0.06311943;
        } else {
            var13 = -0.47295538;
        }
    } else {
        if (input[3] < -0.115476474) {
            if (input[0] < -0.01356928) {
                if (input[2] < -0.067731865) {
                    if (input[4] < 0.00049090513) {
                        if (input[2] < -0.22604166) {
                            var13 = -0.06623103;
                        } else {
                            var13 = 0.5327329;
                        }
                    } else {
                        var13 = -0.3272965;
                    }
                } else {
                    if (input[4] < -0.048044343) {
                        var13 = -0.46122754;
                    } else {
                        if (input[2] < 0.024538929) {
                            var13 = -0.38954556;
                        } else {
                            var13 = 0.085506886;
                        }
                    }
                }
            } else {
                if (input[0] < 4.8848553) {
                    var13 = -0.454522;
                } else {
                    var13 = 0.10962238;
                }
            }
        } else {
            if (input[0] < 4.89508) {
                if (input[0] < 4.8896165) {
                    if (input[2] < 0.024538929) {
                        if (input[0] < -0.01356928) {
                            var13 = 0.04544516;
                        } else {
                            var13 = -0.25977522;
                        }
                    } else {
                        if (input[4] < -0.08801119) {
                            var13 = -0.5492999;
                        } else {
                            var13 = -0.0075812736;
                        }
                    }
                } else {
                    if (input[0] < 4.8899937) {
                        var13 = 0.4550176;
                    } else {
                        if (input[3] < 0.007698695) {
                            var13 = -0.22060432;
                        } else {
                            var13 = 0.01932712;
                        }
                    }
                }
            } else {
                var13 = -0.37538877;
            }
        }
    }
    double var14;
    if (input[4] < -0.23889126) {
        var14 = -0.4591088;
    } else {
        if (input[1] < -0.16609044) {
            var14 = -0.41136023;
        } else {
            if (input[0] < 4.89508) {
                if (input[1] < 4.804858) {
                    if (input[3] < 5.8523602) {
                        if (input[1] < 3.8897488) {
                            var14 = 0.007782583;
                        } else {
                            var14 = -0.30302772;
                        }
                    } else {
                        if (input[3] < 6.612967) {
                            var14 = 0.34915525;
                        } else {
                            var14 = -0.17426136;
                        }
                    }
                } else {
                    if (input[3] < 6.612967) {
                        if (input[1] < 6.248393) {
                            var14 = -0.54138887;
                        } else {
                            var14 = 0.0011132545;
                        }
                    } else {
                        if (input[4] < -0.15122697) {
                            var14 = -0.10817594;
                        } else {
                            var14 = 0.023269402;
                        }
                    }
                }
            } else {
                var14 = -0.34893158;
            }
        }
    }
    double var15;
    if (input[2] < -0.3095456) {
        if (input[1] < -0.034979854) {
            var15 = -0.46273622;
        } else {
            var15 = 0.13843307;
        }
    } else {
        if (input[3] < -0.10931771) {
            if (input[1] < 0.7813453) {
                if (input[1] < -0.16609044) {
                    var15 = -0.36627546;
                } else {
                    var15 = -0.044253945;
                }
            } else {
                var15 = -0.40096223;
            }
        } else {
            if (input[1] < -0.1584265) {
                if (input[2] < -0.18891205) {
                    var15 = -0.3405988;
                } else {
                    if (input[2] < 2.320997) {
                        if (input[2] < 0.59779453) {
                            var15 = 0.050732467;
                        } else {
                            var15 = 0.30608124;
                        }
                    } else {
                        var15 = -0.33074534;
                    }
                }
            } else {
                if (input[3] < 0.007698695) {
                    if (input[1] < 0.2168736) {
                        if (input[2] < 4.28131) {
                            var15 = -0.02259354;
                        } else {
                            var15 = -0.29681557;
                        }
                    } else {
                        var15 = -0.5140847;
                    }
                } else {
                    if (input[2] < 1.8298396) {
                        if (input[1] < 0.2168736) {
                            var15 = -0.012395739;
                        } else {
                            var15 = 0.062873;
                        }
                    } else {
                        if (input[2] < 2.4477885) {
                            var15 = -0.16835505;
                        } else {
                            var15 = 0.008013375;
                        }
                    }
                }
            }
        }
    }
    double var16;
    if (input[4] < -0.23889126) {
        var16 = -0.42844635;
    } else {
        if (input[1] < -0.16609044) {
            var16 = -0.3502424;
        } else {
            if (input[1] < 8.813497) {
                if (input[3] < 10.659271) {
                    if (input[1] < 6.248393) {
                        if (input[3] < 1.9446282) {
                            var16 = -0.008187414;
                        } else {
                            var16 = 0.0320003;
                        }
                    } else {
                        if (input[3] < 8.873231) {
                            var16 = -0.33058673;
                        } else {
                            var16 = 0.054733187;
                        }
                    }
                } else {
                    var16 = 0.23265895;
                }
            } else {
                if (input[3] < 10.659271) {
                    var16 = -0.4595143;
                } else {
                    if (input[2] < -0.18891205) {
                        var16 = 0.35509273;
                    } else {
                        if (input[3] < 18.35772) {
                            var16 = -0.006064875;
                        } else {
                            var16 = -0.1588977;
                        }
                    }
                }
            }
        }
    }
    double var17;
    if (input[1] < -0.16599967) {
        var17 = -0.40093964;
    } else {
        if (input[4] < -0.12723544) {
            if (input[2] < -0.067731865) {
                if (input[4] < -0.1936501) {
                    if (input[2] < -0.13867517) {
                        if (input[4] < -0.21943146) {
                            var17 = -0.064332806;
                        } else {
                            var17 = 0.14750797;
                        }
                    } else {
                        var17 = -0.55863667;
                    }
                } else {
                    if (input[3] < 2.9946966) {
                        if (input[3] < 0.11855634) {
                            var17 = 0.10109032;
                        } else {
                            var17 = -0.1835208;
                        }
                    } else {
                        var17 = 0.38556176;
                    }
                }
            } else {
                if (input[1] < -0.12183578) {
                    if (input[2] < 0.024538929) {
                        var17 = 0.1373074;
                    } else {
                        var17 = -0.30430868;
                    }
                } else {
                    var17 = -0.5436124;
                }
            }
        } else {
            if (input[4] < -0.048044343) {
                if (input[2] < 0.024538929) {
                    if (input[3] < -0.0662064) {
                        if (input[3] < -0.0970002) {
                            var17 = 0.18326958;
                        } else {
                            var17 = 0.5754579;
                        }
                    } else {
                        if (input[3] < 0.007698695) {
                            var17 = -0.21996985;
                        } else {
                            var17 = 0.15098016;
                        }
                    }
                } else {
                    if (input[1] < 1.0271925) {
                        if (input[3] < 2.1601849) {
                            var17 = -0.10813348;
                        } else {
                            var17 = -0.7705084;
                        }
                    } else {
                        var17 = 0.1864194;
                    }
                }
            } else {
                if (input[2] < 0.11285731) {
                    if (input[1] < 0.014353848) {
                        if (input[3] < 1.0485289) {
                            var17 = -0.16126809;
                        } else {
                            var17 = -0.671264;
                        }
                    } else {
                        if (input[4] < 0.2099027) {
                            var17 = 0.15792622;
                        } else {
                            var17 = -0.18802662;
                        }
                    }
                } else {
                    if (input[1] < 0.014353848) {
                        if (input[4] < 0.109024025) {
                            var17 = -0.036240704;
                        } else {
                            var17 = 0.08881347;
                        }
                    } else {
                        if (input[3] < 0.11855634) {
                            var17 = -0.40039393;
                        } else {
                            var17 = -0.0043577827;
                        }
                    }
                }
            }
        }
    }
    double var18;
    if (input[4] < -0.23889126) {
        var18 = -0.37630212;
    } else {
        if (input[3] < 0.14935014) {
            if (input[1] < 0.2168736) {
                if (input[4] < -0.23342653) {
                    var18 = 0.3719298;
                } else {
                    if (input[2] < -0.25426492) {
                        if (input[4] < -0.21528055) {
                            var18 = 0.058035985;
                        } else {
                            var18 = -0.3645282;
                        }
                    } else {
                        if (input[4] < -0.037438564) {
                            var18 = 0.048883546;
                        } else {
                            var18 = -0.023211164;
                        }
                    }
                }
            } else {
                var18 = -0.38404182;
            }
        } else {
            if (input[3] < 0.23557276) {
                if (input[3] < 0.20169958) {
                    if (input[1] < -0.12762158) {
                        if (input[1] < -0.13358673) {
                            var18 = -0.024432542;
                        } else {
                            var18 = 0.6615987;
                        }
                    } else {
                        if (input[4] < 0.00049090513) {
                            var18 = 0.26591942;
                        } else {
                            var18 = -0.19139017;
                        }
                    }
                } else {
                    if (input[4] < 4.569697) {
                        if (input[4] < -0.08801119) {
                            var18 = 0.00009790015;
                        } else {
                            var18 = 0.3760408;
                        }
                    } else {
                        if (input[2] < 3.411168) {
                            var18 = -0.5945883;
                        } else {
                            var18 = 0.3295887;
                        }
                    }
                }
            } else {
                if (input[1] < -0.1232925) {
                    if (input[1] < -0.12762158) {
                        if (input[4] < -0.017959725) {
                            var18 = 0.14954971;
                        } else {
                            var18 = -0.19754806;
                        }
                    } else {
                        var18 = -0.52184796;
                    }
                } else {
                    if (input[4] < 3.0883152) {
                        if (input[4] < -0.15122697) {
                            var18 = -0.029554503;
                        } else {
                            var18 = 0.038153328;
                        }
                    } else {
                        if (input[4] < 5.294013) {
                            var18 = -0.08341473;
                        } else {
                            var18 = 0.029146245;
                        }
                    }
                }
            }
        }
    }
    double var19;
    if (input[1] < -0.16609044) {
        var19 = -0.3942006;
    } else {
        if (input[0] < 4.89508) {
            if (input[0] < 4.8848553) {
                if (input[0] < -0.01356928) {
                    if (input[1] < -0.16592187) {
                        var19 = 0.3809756;
                    } else {
                        if (input[4] < -0.23342653) {
                            var19 = 0.35236755;
                        } else {
                            var19 = 0.0010522626;
                        }
                    }
                } else {
                    var19 = -0.45904747;
                }
            } else {
                if (input[0] < 4.8899937) {
                    if (input[0] < 4.8896165) {
                        if (input[1] < -0.034979854) {
                            var19 = -0.041253537;
                        } else {
                            var19 = 0.1806678;
                        }
                    } else {
                        var19 = 0.44238412;
                    }
                } else {
                    if (input[1] < 3.16969) {
                        if (input[3] < 1.5319914) {
                            var19 = -0.045466673;
                        } else {
                            var19 = 0.13594112;
                        }
                    } else {
                        if (input[4] < 3.0883152) {
                            var19 = -0.004743764;
                        } else {
                            var19 = -0.1785396;
                        }
                    }
                }
            }
        } else {
            var19 = -0.3114879;
        }
    }
    double var20;
    var20 = var0 + var1 + var2 + var3 + var4 + var5 + var6 + var7 + var8 + var9 + var10 + var11 + var12 + var13 + var14 + var15 + var16 + var17 + var18 + var19;
    output[0] = -1.0 * var20;
    output[1] = var20;
}

int main() {
    double input[5];
    double output[2];
    while(1) {
        score(input, output);
    }
}